<?xml version="1.0"?>
<opencv_storage>
<cascade>
  <stageType>BOOST</stageType>
  <featureType>HAAR</featureType>
  <height>40</height>
  <width>40</width>
  <stageParams>
    <boostType>GAB</boostType>
    <minHitRate>9.9500000476837158e-01</minHitRate>
    <maxFalseAlarm>5.0000000000000000e-01</maxFalseAlarm>
    <weightTrimRate>9.4999998807907104e-01</weightTrimRate>
    <maxDepth>1</maxDepth>
    <maxWeakCount>100</maxWeakCount></stageParams>
  <featureParams>
    <maxCatCount>0</maxCatCount>
    <featSize>1</featSize>
    <mode>BASIC</mode></featureParams>
  <stageNum>13</stageNum>
  <stages>
    <!-- stage 0 -->
    <_>
      <maxWeakCount>1</maxWeakCount>
      <stageThreshold>9.1150444746017456e-01</stageThreshold>
      <weakClassifiers>
        <_>
          <internalNodes>
            0 -1 3 1.7461040616035461e-01</internalNodes>
          <leafValues>
            -1. 9.1150444746017456e-01</leafValues></_></weakClassifiers></_>
    <!-- stage 1 -->
    <_>
      <maxWeakCount>3</maxWeakCount>
      <stageThreshold>-1.2007087469100952e+00</stageThreshold>
      <weakClassifiers>
        <_>
          <internalNodes>
            0 -1 8 -1.3128512538969517e-02</internalNodes>
          <leafValues>
            8.6666667461395264e-01 -9.4638067483901978e-01</leafValues></_>
        <_>
          <internalNodes>
            0 -1 16 -1.7583485692739487e-02</internalNodes>
          <leafValues>
            7.8148519992828369e-01 -9.1294544935226440e-01</leafValues></_>
        <_>
          <internalNodes>
            0 -1 30 -1.2800276279449463e-02</internalNodes>
          <leafValues>
            6.5861737728118896e-01 -9.4764059782028198e-01</leafValues></_></weakClassifiers></_>
    <!-- stage 2 -->
    <_>
      <maxWeakCount>3</maxWeakCount>
      <stageThreshold>-1.0298861265182495e+00</stageThreshold>
      <weakClassifiers>
        <_>
          <internalNodes>
            0 -1 7 -1.4171769842505455e-02</internalNodes>
          <leafValues>
            6.4485979080200195e-01 -8.9218330383300781e-01</leafValues></_>
        <_>
          <internalNodes>
            0 -1 33 6.3212379813194275e-02</internalNodes>
          <leafValues>
            -8.6269259452819824e-01 5.5673789978027344e-01</leafValues></_>
        <_>
          <internalNodes>
            0 -1 32 -1.9865497015416622e-03</internalNodes>
          <leafValues>
            7.5040113925933838e-01 -6.9444072246551514e-01</leafValues></_></weakClassifiers></_>
    <!-- stage 3 -->
    <_>
      <maxWeakCount>3</maxWeakCount>
      <stageThreshold>-9.5844423770904541e-01</stageThreshold>
      <weakClassifiers>
        <_>
          <internalNodes>
            0 -1 20 -3.7742876447737217e-03</internalNodes>
          <leafValues>
            7.5308644771575928e-01 -8.1360203027725220e-01</leafValues></_>
        <_>
          <internalNodes>
            0 -1 4 1.4751994749531150e-03</internalNodes>
          <leafValues>
            -7.9303318262100220e-01 5.3611981868743896e-01</leafValues></_>
        <_>
          <internalNodes>
            0 -1 29 -2.6307858061045408e-03</internalNodes>
          <leafValues>
            6.4819097518920898e-01 -6.4038932323455811e-01</leafValues></_></weakClassifiers></_>
    <!-- stage 4 -->
    <_>
      <maxWeakCount>3</maxWeakCount>
      <stageThreshold>-1.0663609504699707e+00</stageThreshold>
      <weakClassifiers>
        <_>
          <internalNodes>
            0 -1 6 4.6898329257965088e-01</internalNodes>
          <leafValues>
            -8.8511747121810913e-01 8.1052631139755249e-01</leafValues></_>
        <_>
          <internalNodes>
            0 -1 10 -1.0748768225312233e-02</internalNodes>
          <leafValues>
            5.4691374301910400e-01 -7.8632372617721558e-01</leafValues></_>
        <_>
          <internalNodes>
            0 -1 40 6.1158230528235435e-03</internalNodes>
          <leafValues>
            -7.2815722227096558e-01 7.3497217893600464e-01</leafValues></_></weakClassifiers></_>
    <!-- stage 5 -->
    <_>
      <maxWeakCount>3</maxWeakCount>
      <stageThreshold>-1.1543178558349609e+00</stageThreshold>
      <weakClassifiers>
        <_>
          <internalNodes>
            0 -1 24 -2.1884019672870636e-01</internalNodes>
          <leafValues>
            6.0747665166854858e-01 -8.8140159845352173e-01</leafValues></_>
        <_>
          <internalNodes>
            0 -1 35 3.1645200215280056e-03</internalNodes>
          <leafValues>
            -8.0056416988372803e-01 5.5413115024566650e-01</leafValues></_>
        <_>
          <internalNodes>
            0 -1 36 -3.9328455924987793e-02</internalNodes>
          <leafValues>
            5.2764791250228882e-01 -7.8204578161239624e-01</leafValues></_></weakClassifiers></_>
    <!-- stage 6 -->
    <_>
      <maxWeakCount>4</maxWeakCount>
      <stageThreshold>-6.1418044567108154e-01</stageThreshold>
      <weakClassifiers>
        <_>
          <internalNodes>
            0 -1 14 -2.7117023244500160e-02</internalNodes>
          <leafValues>
            7.7464789152145386e-01 -7.7886980772018433e-01</leafValues></_>
        <_>
          <internalNodes>
            0 -1 28 -1.4973722398281097e-02</internalNodes>
          <leafValues>
            4.0880554914474487e-01 -7.9246681928634644e-01</leafValues></_>
        <_>
          <internalNodes>
            0 -1 19 -4.0119383484125137e-03</internalNodes>
          <leafValues>
            -9.9154984951019287e-01 2.8805199265480042e-01</leafValues></_>
        <_>
          <internalNodes>
            0 -1 18 1.7743429541587830e-01</internalNodes>
          <leafValues>
            -5.3216820955276489e-01 6.9948470592498779e-01</leafValues></_></weakClassifiers></_>
    <!-- stage 7 -->
    <_>
      <maxWeakCount>2</maxWeakCount>
      <stageThreshold>-5.5530643463134766e-01</stageThreshold>
      <weakClassifiers>
        <_>
          <internalNodes>
            0 -1 0 5.3580507636070251e-02</internalNodes>
          <leafValues>
            -7.9434448480606079e-01 5.2808988094329834e-01</leafValues></_>
        <_>
          <internalNodes>
            0 -1 17 4.8574633896350861e-02</internalNodes>
          <leafValues>
            2.3903803527355194e-01 -9.8976814746856689e-01</leafValues></_></weakClassifiers></_>
    <!-- stage 8 -->
    <_>
      <maxWeakCount>4</maxWeakCount>
      <stageThreshold>-9.7967678308486938e-01</stageThreshold>
      <weakClassifiers>
        <_>
          <internalNodes>
            0 -1 37 -7.8556351363658905e-03</internalNodes>
          <leafValues>
            3.8947367668151855e-01 -7.8067886829376221e-01</leafValues></_>
        <_>
          <internalNodes>
            0 -1 34 1.7781738191843033e-02</internalNodes>
          <leafValues>
            -7.0737105607986450e-01 4.0567019581794739e-01</leafValues></_>
        <_>
          <internalNodes>
            0 -1 22 -4.9785932060331106e-04</internalNodes>
          <leafValues>
            -9.8847174644470215e-01 3.0452919006347656e-01</leafValues></_>
        <_>
          <internalNodes>
            0 -1 43 -1.7137183749582618e-04</internalNodes>
          <leafValues>
            -9.6630865335464478e-01 2.9061034321784973e-01</leafValues></_></weakClassifiers></_>
    <!-- stage 9 -->
    <_>
      <maxWeakCount>5</maxWeakCount>
      <stageThreshold>-1.2323389053344727e+00</stageThreshold>
      <weakClassifiers>
        <_>
          <internalNodes>
            0 -1 11 -1.0595222003757954e-02</internalNodes>
          <leafValues>
            1.3725490868091583e-01 -8.7076920270919800e-01</leafValues></_>
        <_>
          <internalNodes>
            0 -1 5 2.4445259571075439e-01</internalNodes>
          <leafValues>
            -6.9875001907348633e-01 3.7255930900573730e-01</leafValues></_>
        <_>
          <internalNodes>
            0 -1 42 4.3270671740174294e-03</internalNodes>
          <leafValues>
            -5.2440905570983887e-01 6.4749437570571899e-01</leafValues></_>
        <_>
          <internalNodes>
            0 -1 27 -9.8452093079686165e-03</internalNodes>
          <leafValues>
            3.5215187072753906e-01 -1.</leafValues></_>
        <_>
          <internalNodes>
            0 -1 41 -1.2497100979089737e-03</internalNodes>
          <leafValues>
            5.0943750143051147e-01 -5.8002233505249023e-01</leafValues></_></weakClassifiers></_>
    <!-- stage 10 -->
    <_>
      <maxWeakCount>5</maxWeakCount>
      <stageThreshold>-1.1749589443206787e+00</stageThreshold>
      <weakClassifiers>
        <_>
          <internalNodes>
            0 -1 15 1.1776983737945557e-01</internalNodes>
          <leafValues>
            -8.2058048248291016e-01 4.9494948983192444e-01</leafValues></_>
        <_>
          <internalNodes>
            0 -1 2 1.9511934369802475e-02</internalNodes>
          <leafValues>
            -7.0579379796981812e-01 4.3117499351501465e-01</leafValues></_>
        <_>
          <internalNodes>
            0 -1 39 3.8821894675493240e-02</internalNodes>
          <leafValues>
            -8.6901104450225830e-01 3.6224490404129028e-01</leafValues></_>
        <_>
          <internalNodes>
            0 -1 13 -8.8322706520557404e-02</internalNodes>
          <leafValues>
            6.7956447601318359e-01 -5.0028914213180542e-01</leafValues></_>
        <_>
          <internalNodes>
            0 -1 25 -1.0039188200607896e-03</internalNodes>
          <leafValues>
            5.6403547525405884e-01 -6.4750921726226807e-01</leafValues></_></weakClassifiers></_>
    <!-- stage 11 -->
    <_>
      <maxWeakCount>4</maxWeakCount>
      <stageThreshold>-8.8083279132843018e-01</stageThreshold>
      <weakClassifiers>
        <_>
          <internalNodes>
            0 -1 12 -5.9787193313241005e-03</internalNodes>
          <leafValues>
            3.6170211434364319e-01 -7.7083331346511841e-01</leafValues></_>
        <_>
          <internalNodes>
            0 -1 1 5.5862879753112793e-01</internalNodes>
          <leafValues>
            -6.4899849891662598e-01 3.4033334255218506e-01</leafValues></_>
        <_>
          <internalNodes>
            0 -1 31 -3.8102210965007544e-03</internalNodes>
          <leafValues>
            3.7114286422729492e-01 -7.1104580163955688e-01</leafValues></_>
        <_>
          <internalNodes>
            0 -1 26 3.2121736556291580e-02</internalNodes>
          <leafValues>
            2.6071298122406006e-01 -9.6634161472320557e-01</leafValues></_></weakClassifiers></_>
    <!-- stage 12 -->
    <_>
      <maxWeakCount>4</maxWeakCount>
      <stageThreshold>-8.2317841053009033e-01</stageThreshold>
      <weakClassifiers>
        <_>
          <internalNodes>
            0 -1 21 1.6559969633817673e-02</internalNodes>
          <leafValues>
            -6.9811320304870605e-01 6.2962961196899414e-01</leafValues></_>
        <_>
          <internalNodes>
            0 -1 9 -1.3955146074295044e-02</internalNodes>
          <leafValues>
            4.0885198116302490e-01 -6.7915844917297363e-01</leafValues></_>
        <_>
          <internalNodes>
            0 -1 23 1.7108287662267685e-02</internalNodes>
          <leafValues>
            3.2170245051383972e-01 -9.5186424255371094e-01</leafValues></_>
        <_>
          <internalNodes>
            0 -1 38 6.8636918440461159e-03</internalNodes>
          <leafValues>
            -7.7407360076904297e-01 4.1794702410697937e-01</leafValues></_></weakClassifiers></_></stages>
  <features>
    <_>
      <rects>
        <_>
          0 0 2 38 -1.</_>
        <_>
          0 19 2 19 2.</_></rects>
      <tilted>0</tilted></_>
    <_>
      <rects>
        <_>
          0 0 36 36 -1.</_>
        <_>
          0 18 36 18 2.</_></rects>
      <tilted>0</tilted></_>
    <_>
      <rects>
        <_>
          0 1 1 36 -1.</_>
        <_>
          0 19 1 18 2.</_></rects>
      <tilted>0</tilted></_>
    <_>
      <rects>
        <_>
          0 1 29 30 -1.</_>
        <_>
          0 16 29 15 2.</_></rects>
      <tilted>0</tilted></_>
    <_>
      <rects>
        <_>
          0 2 4 9 -1.</_>
        <_>
          2 2 2 9 2.</_></rects>
      <tilted>0</tilted></_>
    <_>
      <rects>
        <_>
          0 2 19 30 -1.</_>
        <_>
          0 17 19 15 2.</_></rects>
      <tilted>0</tilted></_>
    <_>
      <rects>
        <_>
          0 4 38 26 -1.</_>
        <_>
          0 17 38 13 2.</_></rects>
      <tilted>0</tilted></_>
    <_>
      <rects>
        <_>
          0 19 8 18 -1.</_>
        <_>
          0 19 4 9 2.</_>
        <_>
          4 28 4 9 2.</_></rects>
      <tilted>0</tilted></_>
    <_>
      <rects>
        <_>
          0 28 8 12 -1.</_>
        <_>
          4 28 4 12 2.</_></rects>
      <tilted>0</tilted></_>
    <_>
      <rects>
        <_>
          0 29 15 8 -1.</_>
        <_>
          5 29 5 8 3.</_></rects>
      <tilted>0</tilted></_>
    <_>
      <rects>
        <_>
          0 31 8 7 -1.</_>
        <_>
          4 31 4 7 2.</_></rects>
      <tilted>0</tilted></_>
    <_>
      <rects>
        <_>
          0 37 12 3 -1.</_>
        <_>
          6 37 6 3 2.</_></rects>
      <tilted>0</tilted></_>
    <_>
      <rects>
        <_>
          0 39 10 1 -1.</_>
        <_>
          5 39 5 1 2.</_></rects>
      <tilted>0</tilted></_>
    <_>
      <rects>
        <_>
          1 17 39 23 -1.</_>
        <_>
          14 17 13 23 3.</_></rects>
      <tilted>0</tilted></_>
    <_>
      <rects>
        <_>
          1 28 10 12 -1.</_>
        <_>
          1 28 5 6 2.</_>
        <_>
          6 34 5 6 2.</_></rects>
      <tilted>0</tilted></_>
    <_>
      <rects>
        <_>
          2 11 21 12 -1.</_>
        <_>
          2 17 21 6 2.</_></rects>
      <tilted>0</tilted></_>
    <_>
      <rects>
        <_>
          3 1 25 12 -1.</_>
        <_>
          3 7 25 6 2.</_></rects>
      <tilted>0</tilted></_>
    <_>
      <rects>
        <_>
          3 4 34 14 -1.</_>
        <_>
          20 4 17 14 2.</_></rects>
      <tilted>0</tilted></_>
    <_>
      <rects>
        <_>
          3 5 29 16 -1.</_>
        <_>
          3 13 29 8 2.</_></rects>
      <tilted>0</tilted></_>
    <_>
      <rects>
        <_>
          3 6 28 16 -1.</_>
        <_>
          17 6 14 16 2.</_></rects>
      <tilted>0</tilted></_>
    <_>
      <rects>
        <_>
          3 31 6 6 -1.</_>
        <_>
          3 31 3 3 2.</_>
        <_>
          6 34 3 3 2.</_></rects>
      <tilted>0</tilted></_>
    <_>
      <rects>
        <_>
          4 17 15 4 -1.</_>
        <_>
          4 19 15 2 2.</_></rects>
      <tilted>0</tilted></_>
    <_>
      <rects>
        <_>
          4 26 28 8 -1.</_>
        <_>
          18 26 14 8 2.</_></rects>
      <tilted>0</tilted></_>
    <_>
      <rects>
        <_>
          5 19 30 16 -1.</_>
        <_>
          5 19 15 8 2.</_>
        <_>
          20 27 15 8 2.</_></rects>
      <tilted>0</tilted></_>
    <_>
      <rects>
        <_>
          7 2 30 21 -1.</_>
        <_>
          7 9 30 7 3.</_></rects>
      <tilted>0</tilted></_>
    <_>
      <rects>
        <_>
          7 38 29 2 -1.</_>
        <_>
          7 39 29 1 2.</_></rects>
      <tilted>0</tilted></_>
    <_>
      <rects>
        <_>
          8 5 28 18 -1.</_>
        <_>
          8 5 14 9 2.</_>
        <_>
          22 14 14 9 2.</_></rects>
      <tilted>0</tilted></_>
    <_>
      <rects>
        <_>
          12 25 13 14 -1.</_>
        <_>
          12 32 13 7 2.</_></rects>
      <tilted>0</tilted></_>
    <_>
      <rects>
        <_>
          13 3 18 10 -1.</_>
        <_>
          13 8 18 5 2.</_></rects>
      <tilted>0</tilted></_>
    <_>
      <rects>
        <_>
          16 36 15 4 -1.</_>
        <_>
          16 38 15 2 2.</_></rects>
      <tilted>0</tilted></_>
    <_>
      <rects>
        <_>
          17 22 17 14 -1.</_>
        <_>
          17 29 17 7 2.</_></rects>
      <tilted>0</tilted></_>
    <_>
      <rects>
        <_>
          19 20 10 12 -1.</_>
        <_>
          19 26 10 6 2.</_></rects>
      <tilted>0</tilted></_>
    <_>
      <rects>
        <_>
          24 35 15 1 -1.</_>
        <_>
          29 35 5 1 3.</_></rects>
      <tilted>0</tilted></_>
    <_>
      <rects>
        <_>
          26 9 10 16 -1.</_>
        <_>
          26 17 10 8 2.</_></rects>
      <tilted>0</tilted></_>
    <_>
      <rects>
        <_>
          26 26 14 14 -1.</_>
        <_>
          26 26 7 7 2.</_>
        <_>
          33 33 7 7 2.</_></rects>
      <tilted>0</tilted></_>
    <_>
      <rects>
        <_>
          26 39 14 1 -1.</_>
        <_>
          33 39 7 1 2.</_></rects>
      <tilted>0</tilted></_>
    <_>
      <rects>
        <_>
          30 0 6 24 -1.</_>
        <_>
          30 8 6 8 3.</_></rects>
      <tilted>0</tilted></_>
    <_>
      <rects>
        <_>
          32 0 8 5 -1.</_>
        <_>
          36 0 4 5 2.</_></rects>
      <tilted>0</tilted></_>
    <_>
      <rects>
        <_>
          32 29 8 11 -1.</_>
        <_>
          36 29 4 11 2.</_></rects>
      <tilted>0</tilted></_>
    <_>
      <rects>
        <_>
          34 3 4 30 -1.</_>
        <_>
          34 18 4 15 2.</_></rects>
      <tilted>0</tilted></_>
    <_>
      <rects>
        <_>
          34 27 6 10 -1.</_>
        <_>
          37 27 3 10 2.</_></rects>
      <tilted>0</tilted></_>
    <_>
      <rects>
        <_>
          36 2 4 7 -1.</_>
        <_>
          38 2 2 7 2.</_></rects>
      <tilted>0</tilted></_>
    <_>
      <rects>
        <_>
          36 28 3 10 -1.</_>
        <_>
          36 33 3 5 2.</_></rects>
      <tilted>0</tilted></_>
    <_>
      <rects>
        <_>
          39 36 1 4 -1.</_>
        <_>
          39 38 1 2 2.</_></rects>
      <tilted>0</tilted></_></features></cascade>
</opencv_storage>
