<?xml version="1.0"?>
<opencv_storage>
<stage13>
  <maxWeakCount>5</maxWeakCount>
  <stageThreshold>-9.7158253192901611e-01</stageThreshold>
  <weakClassifiers>
    <_>
      <internalNodes>
        0 -1 68842 -2.0625567436218262e-01</internalNodes>
      <leafValues>
        5.5882352590560913e-01 -6.2711864709854126e-01</leafValues></_>
    <_>
      <internalNodes>
        0 -1 357937 -4.1194766759872437e-02</internalNodes>
      <leafValues>
        2.8014913201332092e-01 -9.3860197067260742e-01</leafValues></_>
    <_>
      <internalNodes>
        0 -1 827109 -2.3185219615697861e-03</internalNodes>
      <leafValues>
        -1. 1.6310408711433411e-01</leafValues></_>
    <_>
      <internalNodes>
        0 -1 446572 -1.5874278324190527e-04</internalNodes>
      <leafValues>
        -9.1524201631546021e-01 1.9451150298118591e-01</leafValues></_>
    <_>
      <internalNodes>
        0 -1 1192330 -4.8156565753743052e-05</internalNodes>
      <leafValues>
        -9.5858430862426758e-01 2.3652245104312897e-01</leafValues></_></weakClassifiers></stage13>
</opencv_storage>
