<?xml version="1.0"?>
<opencv_storage>
<stage15>
  <maxWeakCount>5</maxWeakCount>
  <stageThreshold>-1.1711143255233765e+00</stageThreshold>
  <weakClassifiers>
    <_>
      <internalNodes>
        0 -1 49107 -7.2245579212903976e-03</internalNodes>
      <leafValues>
        2.9166665673255920e-01 -6.9680851697921753e-01</leafValues></_>
    <_>
      <internalNodes>
        0 -1 122839 1.9887365400791168e-02</internalNodes>
      <leafValues>
        -4.9033436179161072e-01 5.0103884935379028e-01</leafValues></_>
    <_>
      <internalNodes>
        0 -1 1240783 1.1550037015695125e-05</internalNodes>
      <leafValues>
        -4.8801344633102417e-01 4.5046308636665344e-01</leafValues></_>
    <_>
      <internalNodes>
        0 -1 1200544 -1.1263467968092300e-05</internalNodes>
      <leafValues>
        3.3458584547042847e-01 -7.8947937488555908e-01</leafValues></_>
    <_>
      <internalNodes>
        0 -1 960732 6.9101992994546890e-04</internalNodes>
      <leafValues>
        -7.6902037858963013e-01 2.8018262982368469e-01</leafValues></_></weakClassifiers></stage15>
</opencv_storage>
