<?xml version="1.0"?>
<opencv_storage>
<stage14>
  <maxWeakCount>5</maxWeakCount>
  <stageThreshold>-1.3428913354873657e+00</stageThreshold>
  <weakClassifiers>
    <_>
      <internalNodes>
        0 -1 42913 -2.4665370583534241e-02</internalNodes>
      <leafValues>
        8.6046510934829712e-01 -6.6509431600570679e-01</leafValues></_>
    <_>
      <internalNodes>
        0 -1 346099 4.0838550776243210e-03</internalNodes>
      <leafValues>
        -6.7052596807479858e-01 5.5223315954208374e-01</leafValues></_>
    <_>
      <internalNodes>
        0 -1 774205 -1.2513991678133607e-03</internalNodes>
      <leafValues>
        -6.9436544179916382e-01 4.8495969176292419e-01</leafValues></_>
    <_>
      <internalNodes>
        0 -1 57930 1.9248125609010458e-03</internalNodes>
      <leafValues>
        -9.1522079706192017e-01 3.7052276730537415e-01</leafValues></_>
    <_>
      <internalNodes>
        0 -1 1180621 2.8642037068493664e-04</internalNodes>
      <leafValues>
        3.1657171249389648e-01 -9.1616874933242798e-01</leafValues></_></weakClassifiers></stage14>
</opencv_storage>
