<?xml version="1.0"?>
<opencv_storage>
<cascade>
  <stageType>BOOST</stageType>
  <featureType>HAAR</featureType>
  <height>40</height>
  <width>40</width>
  <stageParams>
    <boostType>GAB</boostType>
    <minHitRate>9.9500000476837158e-01</minHitRate>
    <maxFalseAlarm>5.0000000000000000e-01</maxFalseAlarm>
    <weightTrimRate>9.4999998807907104e-01</weightTrimRate>
    <maxDepth>1</maxDepth>
    <maxWeakCount>100</maxWeakCount></stageParams>
  <featureParams>
    <maxCatCount>0</maxCatCount>
    <featSize>1</featSize>
    <mode>BASIC</mode></featureParams>
  <stageNum>16</stageNum>
  <stages>
    <!-- stage 0 -->
    <_>
      <maxWeakCount>1</maxWeakCount>
      <stageThreshold>9.3589740991592407e-01</stageThreshold>
      <weakClassifiers>
        <_>
          <internalNodes>
            0 -1 2 1.7461040616035461e-01</internalNodes>
          <leafValues>
            -1. 9.3589740991592407e-01</leafValues></_></weakClassifiers></_>
    <!-- stage 1 -->
    <_>
      <maxWeakCount>3</maxWeakCount>
      <stageThreshold>-1.2034629583358765e+00</stageThreshold>
      <weakClassifiers>
        <_>
          <internalNodes>
            0 -1 19 -1.0831353254616261e-02</internalNodes>
          <leafValues>
            7.9874211549758911e-01 -9.5580112934112549e-01</leafValues></_>
        <_>
          <internalNodes>
            0 -1 30 -2.2249892354011536e-02</internalNodes>
          <leafValues>
            7.1463871002197266e-01 -8.9398616552352905e-01</leafValues></_>
        <_>
          <internalNodes>
            0 -1 53 3.2227812334895134e-03</internalNodes>
          <leafValues>
            -8.7626868486404419e-01 6.4632427692413330e-01</leafValues></_></weakClassifiers></_>
    <!-- stage 2 -->
    <_>
      <maxWeakCount>3</maxWeakCount>
      <stageThreshold>-9.1148632764816284e-01</stageThreshold>
      <weakClassifiers>
        <_>
          <internalNodes>
            0 -1 17 3.5903501510620117e-01</internalNodes>
          <leafValues>
            -8.8918203115463257e-01 8.3098590373992920e-01</leafValues></_>
        <_>
          <internalNodes>
            0 -1 54 4.6576620079576969e-03</internalNodes>
          <leafValues>
            -6.8469482660293579e-01 7.9758697748184204e-01</leafValues></_>
        <_>
          <internalNodes>
            0 -1 46 -4.0063198655843735e-02</internalNodes>
          <leafValues>
            6.8067729473114014e-01 -8.1989121437072754e-01</leafValues></_></weakClassifiers></_>
    <!-- stage 3 -->
    <_>
      <maxWeakCount>3</maxWeakCount>
      <stageThreshold>-8.6638432741165161e-01</stageThreshold>
      <weakClassifiers>
        <_>
          <internalNodes>
            0 -1 58 -1.3246922753751278e-03</internalNodes>
          <leafValues>
            7.0149254798889160e-01 -8.0878555774688721e-01</leafValues></_>
        <_>
          <internalNodes>
            0 -1 23 -9.1861598193645477e-03</internalNodes>
          <leafValues>
            7.0021939277648926e-01 -6.8356806039810181e-01</leafValues></_>
        <_>
          <internalNodes>
            0 -1 31 -1.1245267232879996e-03</internalNodes>
          <leafValues>
            6.6812664270401001e-01 -7.5781816244125366e-01</leafValues></_></weakClassifiers></_>
    <!-- stage 4 -->
    <_>
      <maxWeakCount>4</maxWeakCount>
      <stageThreshold>-1.4014211893081665e+00</stageThreshold>
      <weakClassifiers>
        <_>
          <internalNodes>
            0 -1 7 4.8853969573974609e-01</internalNodes>
          <leafValues>
            -8.8918203115463257e-01 8.3098590373992920e-01</leafValues></_>
        <_>
          <internalNodes>
            0 -1 65 1.7113665118813515e-02</internalNodes>
          <leafValues>
            -7.4097526073455811e-01 5.0209790468215942e-01</leafValues></_>
        <_>
          <internalNodes>
            0 -1 16 -1.1803291738033295e-02</internalNodes>
          <leafValues>
            9.2337727546691895e-01 -4.4904559850692749e-01</leafValues></_>
        <_>
          <internalNodes>
            0 -1 36 2.2416040301322937e-03</internalNodes>
          <leafValues>
            -5.6529146432876587e-01 7.3149484395980835e-01</leafValues></_></weakClassifiers></_>
    <!-- stage 5 -->
    <_>
      <maxWeakCount>4</maxWeakCount>
      <stageThreshold>-1.1996091604232788e+00</stageThreshold>
      <weakClassifiers>
        <_>
          <internalNodes>
            0 -1 29 1.0207346826791763e-01</internalNodes>
          <leafValues>
            -7.5247526168823242e-01 7.2649574279785156e-01</leafValues></_>
        <_>
          <internalNodes>
            0 -1 4 2.6612002402544022e-02</internalNodes>
          <leafValues>
            -5.1935446262359619e-01 8.5165727138519287e-01</leafValues></_>
        <_>
          <internalNodes>
            0 -1 42 9.9306302145123482e-03</internalNodes>
          <leafValues>
            -6.6748893260955811e-01 5.6063336133956909e-01</leafValues></_>
        <_>
          <internalNodes>
            0 -1 38 9.1341882944107056e-02</internalNodes>
          <leafValues>
            -4.8841279745101929e-01 7.7261269092559814e-01</leafValues></_></weakClassifiers></_>
    <!-- stage 6 -->
    <_>
      <maxWeakCount>5</maxWeakCount>
      <stageThreshold>-1.4832024574279785e+00</stageThreshold>
      <weakClassifiers>
        <_>
          <internalNodes>
            0 -1 21 3.6629480123519897e-01</internalNodes>
          <leafValues>
            -7.7722769975662231e-01 8.1196582317352295e-01</leafValues></_>
        <_>
          <internalNodes>
            0 -1 11 -2.8532817959785461e-02</internalNodes>
          <leafValues>
            7.3310452699661255e-01 -5.2114224433898926e-01</leafValues></_>
        <_>
          <internalNodes>
            0 -1 18 9.0926624834537506e-03</internalNodes>
          <leafValues>
            -9.2768347263336182e-01 3.6910623311996460e-01</leafValues></_>
        <_>
          <internalNodes>
            0 -1 56 -7.8235205728560686e-04</internalNodes>
          <leafValues>
            3.9908048510551453e-01 -8.5614067316055298e-01</leafValues></_>
        <_>
          <internalNodes>
            0 -1 61 1.7885766923427582e-02</internalNodes>
          <leafValues>
            -9.3345940113067627e-01 3.0220198631286621e-01</leafValues></_></weakClassifiers></_>
    <!-- stage 7 -->
    <_>
      <maxWeakCount>3</maxWeakCount>
      <stageThreshold>-8.4018766880035400e-01</stageThreshold>
      <weakClassifiers>
        <_>
          <internalNodes>
            0 -1 6 -2.1484744548797607e-01</internalNodes>
          <leafValues>
            6.0000002384185791e-01 -7.9527556896209717e-01</leafValues></_>
        <_>
          <internalNodes>
            0 -1 57 -6.3909422606229782e-03</internalNodes>
          <leafValues>
            7.3179173469543457e-01 -6.1070656776428223e-01</leafValues></_>
        <_>
          <internalNodes>
            0 -1 60 6.0547185130417347e-03</internalNodes>
          <leafValues>
            -7.1858155727386475e-01 5.6579446792602539e-01</leafValues></_></weakClassifiers></_>
    <!-- stage 8 -->
    <_>
      <maxWeakCount>6</maxWeakCount>
      <stageThreshold>-1.2884559631347656e+00</stageThreshold>
      <weakClassifiers>
        <_>
          <internalNodes>
            0 -1 5 2.4452957510948181e-01</internalNodes>
          <leafValues>
            -8.7155961990356445e-01 3.4020617604255676e-01</leafValues></_>
        <_>
          <internalNodes>
            0 -1 8 -1.2352821417152882e-02</internalNodes>
          <leafValues>
            7.1578037738800049e-01 -6.4017504453659058e-01</leafValues></_>
        <_>
          <internalNodes>
            0 -1 0 1.3155143242329359e-03</internalNodes>
          <leafValues>
            -7.1356290578842163e-01 4.4140115380287170e-01</leafValues></_>
        <_>
          <internalNodes>
            0 -1 1 -4.9914285773411393e-04</internalNodes>
          <leafValues>
            3.0785480141639709e-01 -9.0915536880493164e-01</leafValues></_>
        <_>
          <internalNodes>
            0 -1 25 3.2728020101785660e-02</internalNodes>
          <leafValues>
            2.5759902596473694e-01 -1.</leafValues></_>
        <_>
          <internalNodes>
            0 -1 52 1.4311546459794044e-02</internalNodes>
          <leafValues>
            -6.7470419406890869e-01 4.3343397974967957e-01</leafValues></_></weakClassifiers></_>
    <!-- stage 9 -->
    <_>
      <maxWeakCount>5</maxWeakCount>
      <stageThreshold>-1.3897613286972046e+00</stageThreshold>
      <weakClassifiers>
        <_>
          <internalNodes>
            0 -1 63 -5.3571243770420551e-03</internalNodes>
          <leafValues>
            6.6355139017105103e-01 -7.0048308372497559e-01</leafValues></_>
        <_>
          <internalNodes>
            0 -1 10 -1.6299540176987648e-02</internalNodes>
          <leafValues>
            7.2882211208343506e-01 -4.8751714825630188e-01</leafValues></_>
        <_>
          <internalNodes>
            0 -1 40 1.9696608185768127e-01</internalNodes>
          <leafValues>
            -7.8594213724136353e-01 4.0810608863830566e-01</leafValues></_>
        <_>
          <internalNodes>
            0 -1 68 -4.8055437218863517e-05</internalNodes>
          <leafValues>
            -9.6496009826660156e-01 2.9721277952194214e-01</leafValues></_>
        <_>
          <internalNodes>
            0 -1 67 -6.5194108174182475e-05</internalNodes>
          <leafValues>
            -1. 2.8696823120117188e-01</leafValues></_></weakClassifiers></_>
    <!-- stage 10 -->
    <_>
      <maxWeakCount>7</maxWeakCount>
      <stageThreshold>-1.2989407777786255e+00</stageThreshold>
      <weakClassifiers>
        <_>
          <internalNodes>
            0 -1 34 -1.0520135983824730e-02</internalNodes>
          <leafValues>
            1.3333334028720856e-01 -8.9323842525482178e-01</leafValues></_>
        <_>
          <internalNodes>
            0 -1 66 -6.9150133640505373e-05</internalNodes>
          <leafValues>
            -8.1577903032302856e-01 2.5957927107810974e-01</leafValues></_>
        <_>
          <internalNodes>
            0 -1 51 9.1898115351796150e-04</internalNodes>
          <leafValues>
            -5.1527589559555054e-01 5.9232193231582642e-01</leafValues></_>
        <_>
          <internalNodes>
            0 -1 3 5.7509839534759521e-01</internalNodes>
          <leafValues>
            -6.1926579475402832e-01 4.8925021290779114e-01</leafValues></_>
        <_>
          <internalNodes>
            0 -1 9 -1.5580311417579651e-02</internalNodes>
          <leafValues>
            6.3842302560806274e-01 -4.9341407418251038e-01</leafValues></_>
        <_>
          <internalNodes>
            0 -1 48 1.7639974248595536e-04</internalNodes>
          <leafValues>
            3.4245780110359192e-01 -9.7619616985321045e-01</leafValues></_>
        <_>
          <internalNodes>
            0 -1 64 9.8374858498573303e-04</internalNodes>
          <leafValues>
            -4.6283417940139771e-01 7.6510775089263916e-01</leafValues></_></weakClassifiers></_>
    <!-- stage 11 -->
    <_>
      <maxWeakCount>5</maxWeakCount>
      <stageThreshold>-1.4514789581298828e+00</stageThreshold>
      <weakClassifiers>
        <_>
          <internalNodes>
            0 -1 13 2.1617278456687927e-01</internalNodes>
          <leafValues>
            -7.5000000000000000e-01 4.3448275327682495e-01</leafValues></_>
        <_>
          <internalNodes>
            0 -1 32 -2.3653808981180191e-02</internalNodes>
          <leafValues>
            2.4441720545291901e-01 -8.5329890251159668e-01</leafValues></_>
        <_>
          <internalNodes>
            0 -1 35 4.3986432254314423e-02</internalNodes>
          <leafValues>
            -6.1175990104675293e-01 4.7702631354331970e-01</leafValues></_>
        <_>
          <internalNodes>
            0 -1 45 1.0593807324767113e-02</internalNodes>
          <leafValues>
            -6.3583016395568848e-01 4.4173863530158997e-01</leafValues></_>
        <_>
          <internalNodes>
            0 -1 20 -2.9447912238538265e-03</internalNodes>
          <leafValues>
            -9.7059607505798340e-01 3.1062379479408264e-01</leafValues></_></weakClassifiers></_>
    <!-- stage 12 -->
    <_>
      <maxWeakCount>5</maxWeakCount>
      <stageThreshold>-1.3324863910675049e+00</stageThreshold>
      <weakClassifiers>
        <_>
          <internalNodes>
            0 -1 41 -3.5265909973531961e-03</internalNodes>
          <leafValues>
            7.4683547019958496e-01 -6.2895929813385010e-01</leafValues></_>
        <_>
          <internalNodes>
            0 -1 47 -1.0860859765671194e-04</internalNodes>
          <leafValues>
            -9.6685880422592163e-01 2.8952988982200623e-01</leafValues></_>
        <_>
          <internalNodes>
            0 -1 15 -1.8999140709638596e-02</internalNodes>
          <leafValues>
            7.8583496809005737e-01 -4.4309377670288086e-01</leafValues></_>
        <_>
          <internalNodes>
            0 -1 28 -3.4697977825999260e-03</internalNodes>
          <leafValues>
            4.2994752526283264e-01 -7.2818553447723389e-01</leafValues></_>
        <_>
          <internalNodes>
            0 -1 22 -2.4897731840610504e-02</internalNodes>
          <leafValues>
            -9.6598482131958008e-01 2.7647796273231506e-01</leafValues></_></weakClassifiers></_>
    <!-- stage 13 -->
    <_>
      <maxWeakCount>6</maxWeakCount>
      <stageThreshold>-1.3658888339996338e+00</stageThreshold>
      <weakClassifiers>
        <_>
          <internalNodes>
            0 -1 55 1.0122219100594521e-03</internalNodes>
          <leafValues>
            -6.4678901433944702e-01 7.4117648601531982e-01</leafValues></_>
        <_>
          <internalNodes>
            0 -1 12 -1.0576563887298107e-02</internalNodes>
          <leafValues>
            4.2466053366661072e-01 -5.8966809511184692e-01</leafValues></_>
        <_>
          <internalNodes>
            0 -1 14 -4.2269835248589516e-03</internalNodes>
          <leafValues>
            6.6335272789001465e-01 -4.2170080542564392e-01</leafValues></_>
        <_>
          <internalNodes>
            0 -1 24 -5.1975711248815060e-03</internalNodes>
          <leafValues>
            6.5039026737213135e-01 -4.1379442811012268e-01</leafValues></_>
        <_>
          <internalNodes>
            0 -1 62 -5.0759841542458162e-05</internalNodes>
          <leafValues>
            -8.1641697883605957e-01 3.5097703337669373e-01</leafValues></_>
        <_>
          <internalNodes>
            0 -1 44 -1.4132607611827552e-04</internalNodes>
          <leafValues>
            -7.6707130670547485e-01 3.5508638620376587e-01</leafValues></_></weakClassifiers></_>
    <!-- stage 14 -->
    <_>
      <maxWeakCount>4</maxWeakCount>
      <stageThreshold>-8.0714219808578491e-01</stageThreshold>
      <weakClassifiers>
        <_>
          <internalNodes>
            0 -1 59 1.9101273268461227e-02</internalNodes>
          <leafValues>
            -6.7710840702056885e-01 5.8490568399429321e-01</leafValues></_>
        <_>
          <internalNodes>
            0 -1 50 -6.6486332798376679e-05</internalNodes>
          <leafValues>
            -9.4739359617233276e-01 2.6422476768493652e-01</leafValues></_>
        <_>
          <internalNodes>
            0 -1 27 -5.7272114790976048e-03</internalNodes>
          <leafValues>
            4.6472427248954773e-01 -5.9521013498306274e-01</leafValues></_>
        <_>
          <internalNodes>
            0 -1 43 -1.3325057923793793e-02</internalNodes>
          <leafValues>
            -1. 3.5263553261756897e-01</leafValues></_></weakClassifiers></_>
    <!-- stage 15 -->
    <_>
      <maxWeakCount>5</maxWeakCount>
      <stageThreshold>-8.1982129812240601e-01</stageThreshold>
      <weakClassifiers>
        <_>
          <internalNodes>
            0 -1 37 3.2322616316378117e-03</internalNodes>
          <leafValues>
            -6.0612690448760986e-01 9.0625000000000000e-01</leafValues></_>
        <_>
          <internalNodes>
            0 -1 26 -1.2915020808577538e-02</internalNodes>
          <leafValues>
            -9.6274524927139282e-01 2.5696635246276855e-01</leafValues></_>
        <_>
          <internalNodes>
            0 -1 39 -1.2371706776320934e-02</internalNodes>
          <leafValues>
            2.2152884304523468e-01 -9.3659371137619019e-01</leafValues></_>
        <_>
          <internalNodes>
            0 -1 49 -1.4856178313493729e-04</internalNodes>
          <leafValues>
            -8.2898545265197754e-01 2.5649893283843994e-01</leafValues></_>
        <_>
          <internalNodes>
            0 -1 33 1.8446426838636398e-02</internalNodes>
          <leafValues>
            2.7102312445640564e-01 -8.7980103492736816e-01</leafValues></_></weakClassifiers></_></stages>
  <features>
    <_>
      <rects>
        <_>
          0 0 16 1 -1.</_>
        <_>
          8 0 8 1 2.</_></rects>
      <tilted>0</tilted></_>
    <_>
      <rects>
        <_>
          0 0 15 12 -1.</_>
        <_>
          0 6 15 6 2.</_></rects>
      <tilted>0</tilted></_>
    <_>
      <rects>
        <_>
          0 1 29 30 -1.</_>
        <_>
          0 16 29 15 2.</_></rects>
      <tilted>0</tilted></_>
    <_>
      <rects>
        <_>
          0 1 40 34 -1.</_>
        <_>
          0 18 40 17 2.</_></rects>
      <tilted>0</tilted></_>
    <_>
      <rects>
        <_>
          0 2 1 38 -1.</_>
        <_>
          0 21 1 19 2.</_></rects>
      <tilted>0</tilted></_>
    <_>
      <rects>
        <_>
          0 2 19 30 -1.</_>
        <_>
          0 17 19 15 2.</_></rects>
      <tilted>0</tilted></_>
    <_>
      <rects>
        <_>
          0 2 25 21 -1.</_>
        <_>
          0 9 25 7 3.</_></rects>
      <tilted>0</tilted></_>
    <_>
      <rects>
        <_>
          0 4 40 26 -1.</_>
        <_>
          0 17 40 13 2.</_></rects>
      <tilted>0</tilted></_>
    <_>
      <rects>
        <_>
          0 13 6 27 -1.</_>
        <_>
          3 13 3 27 2.</_></rects>
      <tilted>0</tilted></_>
    <_>
      <rects>
        <_>
          0 27 8 13 -1.</_>
        <_>
          4 27 4 13 2.</_></rects>
      <tilted>0</tilted></_>
    <_>
      <rects>
        <_>
          0 30 12 10 -1.</_>
        <_>
          0 30 6 5 2.</_>
        <_>
          6 35 6 5 2.</_></rects>
      <tilted>0</tilted></_>
    <_>
      <rects>
        <_>
          0 32 10 8 -1.</_>
        <_>
          5 32 5 8 2.</_></rects>
      <tilted>0</tilted></_>
    <_>
      <rects>
        <_>
          1 0 16 14 -1.</_>
        <_>
          1 0 8 7 2.</_>
        <_>
          9 7 8 7 2.</_></rects>
      <tilted>0</tilted></_>
    <_>
      <rects>
        <_>
          1 11 35 12 -1.</_>
        <_>
          1 17 35 6 2.</_></rects>
      <tilted>0</tilted></_>
    <_>
      <rects>
        <_>
          1 24 2 12 -1.</_>
        <_>
          1 28 2 4 3.</_></rects>
      <tilted>0</tilted></_>
    <_>
      <rects>
        <_>
          1 30 10 10 -1.</_>
        <_>
          1 30 5 5 2.</_>
        <_>
          6 35 5 5 2.</_></rects>
      <tilted>0</tilted></_>
    <_>
      <rects>
        <_>
          1 34 8 5 -1.</_>
        <_>
          5 34 4 5 2.</_></rects>
      <tilted>0</tilted></_>
    <_>
      <rects>
        <_>
          2 7 38 20 -1.</_>
        <_>
          2 17 38 10 2.</_></rects>
      <tilted>0</tilted></_>
    <_>
      <rects>
        <_>
          2 13 28 15 -1.</_>
        <_>
          16 13 14 15 2.</_></rects>
      <tilted>0</tilted></_>
    <_>
      <rects>
        <_>
          3 4 28 8 -1.</_>
        <_>
          3 8 28 4 2.</_></rects>
      <tilted>0</tilted></_>
    <_>
      <rects>
        <_>
          3 6 28 15 -1.</_>
        <_>
          17 6 14 15 2.</_></rects>
      <tilted>0</tilted></_>
    <_>
      <rects>
        <_>
          3 8 36 18 -1.</_>
        <_>
          3 17 36 9 2.</_></rects>
      <tilted>0</tilted></_>
    <_>
      <rects>
        <_>
          3 12 28 20 -1.</_>
        <_>
          3 12 14 10 2.</_>
        <_>
          17 22 14 10 2.</_></rects>
      <tilted>0</tilted></_>
    <_>
      <rects>
        <_>
          3 16 6 24 -1.</_>
        <_>
          3 16 3 12 2.</_>
        <_>
          6 28 3 12 2.</_></rects>
      <tilted>0</tilted></_>
    <_>
      <rects>
        <_>
          5 36 16 4 -1.</_>
        <_>
          5 38 16 2 2.</_></rects>
      <tilted>0</tilted></_>
    <_>
      <rects>
        <_>
          7 5 28 14 -1.</_>
        <_>
          21 5 14 14 2.</_></rects>
      <tilted>0</tilted></_>
    <_>
      <rects>
        <_>
          8 24 26 12 -1.</_>
        <_>
          8 24 13 6 2.</_>
        <_>
          21 30 13 6 2.</_></rects>
      <tilted>0</tilted></_>
    <_>
      <rects>
        <_>
          8 36 32 4 -1.</_>
        <_>
          8 38 32 2 2.</_></rects>
      <tilted>0</tilted></_>
    <_>
      <rects>
        <_>
          9 6 12 6 -1.</_>
        <_>
          9 9 12 3 2.</_></rects>
      <tilted>0</tilted></_>
    <_>
      <rects>
        <_>
          9 13 30 8 -1.</_>
        <_>
          9 17 30 4 2.</_></rects>
      <tilted>0</tilted></_>
    <_>
      <rects>
        <_>
          9 19 27 16 -1.</_>
        <_>
          9 27 27 8 2.</_></rects>
      <tilted>0</tilted></_>
    <_>
      <rects>
        <_>
          9 38 18 2 -1.</_>
        <_>
          9 39 18 1 2.</_></rects>
      <tilted>0</tilted></_>
    <_>
      <rects>
        <_>
          13 24 11 16 -1.</_>
        <_>
          13 32 11 8 2.</_></rects>
      <tilted>0</tilted></_>
    <_>
      <rects>
        <_>
          14 3 20 20 -1.</_>
        <_>
          14 3 10 10 2.</_>
        <_>
          24 13 10 10 2.</_></rects>
      <tilted>0</tilted></_>
    <_>
      <rects>
        <_>
          15 32 16 8 -1.</_>
        <_>
          15 36 16 4 2.</_></rects>
      <tilted>0</tilted></_>
    <_>
      <rects>
        <_>
          18 0 22 40 -1.</_>
        <_>
          18 0 11 20 2.</_>
        <_>
          29 20 11 20 2.</_></rects>
      <tilted>0</tilted></_>
    <_>
      <rects>
        <_>
          18 22 6 6 -1.</_>
        <_>
          18 24 6 2 3.</_></rects>
      <tilted>0</tilted></_>
    <_>
      <rects>
        <_>
          19 27 14 3 -1.</_>
        <_>
          19 28 14 1 3.</_></rects>
      <tilted>0</tilted></_>
    <_>
      <rects>
        <_>
          20 8 19 12 -1.</_>
        <_>
          20 14 19 6 2.</_></rects>
      <tilted>0</tilted></_>
    <_>
      <rects>
        <_>
          20 24 7 16 -1.</_>
        <_>
          20 32 7 8 2.</_></rects>
      <tilted>0</tilted></_>
    <_>
      <rects>
        <_>
          21 2 16 30 -1.</_>
        <_>
          21 17 16 15 2.</_></rects>
      <tilted>0</tilted></_>
    <_>
      <rects>
        <_>
          21 26 16 3 -1.</_>
        <_>
          21 27 16 1 3.</_></rects>
      <tilted>0</tilted></_>
    <_>
      <rects>
        <_>
          22 29 18 8 -1.</_>
        <_>
          22 29 9 4 2.</_>
        <_>
          31 33 9 4 2.</_></rects>
      <tilted>0</tilted></_>
    <_>
      <rects>
        <_>
          23 0 10 30 -1.</_>
        <_>
          23 0 5 15 2.</_>
        <_>
          28 15 5 15 2.</_></rects>
      <tilted>0</tilted></_>
    <_>
      <rects>
        <_>
          23 18 3 4 -1.</_>
        <_>
          24 18 1 4 3.</_></rects>
      <tilted>0</tilted></_>
    <_>
      <rects>
        <_>
          24 0 16 14 -1.</_>
        <_>
          24 0 8 7 2.</_>
        <_>
          32 7 8 7 2.</_></rects>
      <tilted>0</tilted></_>
    <_>
      <rects>
        <_>
          24 4 12 18 -1.</_>
        <_>
          24 10 12 6 3.</_></rects>
      <tilted>0</tilted></_>
    <_>
      <rects>
        <_>
          26 0 3 2 -1.</_>
        <_>
          27 0 1 2 3.</_></rects>
      <tilted>0</tilted></_>
    <_>
      <rects>
        <_>
          26 0 3 3 -1.</_>
        <_>
          27 0 1 3 3.</_></rects>
      <tilted>0</tilted></_>
    <_>
      <rects>
        <_>
          26 0 7 2 -1.</_>
        <_>
          26 1 7 1 2.</_></rects>
      <tilted>0</tilted></_>
    <_>
      <rects>
        <_>
          26 2 3 1 -1.</_>
        <_>
          27 2 1 1 3.</_></rects>
      <tilted>0</tilted></_>
    <_>
      <rects>
        <_>
          28 29 9 3 -1.</_>
        <_>
          28 30 9 1 3.</_></rects>
      <tilted>0</tilted></_>
    <_>
      <rects>
        <_>
          28 32 12 8 -1.</_>
        <_>
          34 32 6 8 2.</_></rects>
      <tilted>0</tilted></_>
    <_>
      <rects>
        <_>
          28 38 12 2 -1.</_>
        <_>
          34 38 6 2 2.</_></rects>
      <tilted>0</tilted></_>
    <_>
      <rects>
        <_>
          28 39 12 1 -1.</_>
        <_>
          34 39 6 1 2.</_></rects>
      <tilted>0</tilted></_>
    <_>
      <rects>
        <_>
          30 30 3 3 -1.</_>
        <_>
          30 31 3 1 3.</_></rects>
      <tilted>0</tilted></_>
    <_>
      <rects>
        <_>
          31 2 1 12 -1.</_>
        <_>
          31 8 1 6 2.</_></rects>
      <tilted>0</tilted></_>
    <_>
      <rects>
        <_>
          32 0 8 4 -1.</_>
        <_>
          36 0 4 4 2.</_></rects>
      <tilted>0</tilted></_>
    <_>
      <rects>
        <_>
          32 3 8 1 -1.</_>
        <_>
          36 3 4 1 2.</_></rects>
      <tilted>0</tilted></_>
    <_>
      <rects>
        <_>
          32 15 8 9 -1.</_>
        <_>
          32 18 8 3 3.</_></rects>
      <tilted>0</tilted></_>
    <_>
      <rects>
        <_>
          34 27 6 13 -1.</_>
        <_>
          37 27 3 13 2.</_></rects>
      <tilted>0</tilted></_>
    <_>
      <rects>
        <_>
          35 2 2 30 -1.</_>
        <_>
          35 17 2 15 2.</_></rects>
      <tilted>0</tilted></_>
    <_>
      <rects>
        <_>
          36 0 1 2 -1.</_>
        <_>
          36 1 1 1 2.</_></rects>
      <tilted>0</tilted></_>
    <_>
      <rects>
        <_>
          36 0 4 9 -1.</_>
        <_>
          38 0 2 9 2.</_></rects>
      <tilted>0</tilted></_>
    <_>
      <rects>
        <_>
          36 31 4 2 -1.</_>
        <_>
          36 32 4 1 2.</_></rects>
      <tilted>0</tilted></_>
    <_>
      <rects>
        <_>
          39 1 1 36 -1.</_>
        <_>
          39 19 1 18 2.</_></rects>
      <tilted>0</tilted></_>
    <_>
      <rects>
        <_>
          39 34 1 6 -1.</_>
        <_>
          39 36 1 2 3.</_></rects>
      <tilted>0</tilted></_>
    <_>
      <rects>
        <_>
          39 37 1 3 -1.</_>
        <_>
          39 38 1 1 3.</_></rects>
      <tilted>0</tilted></_>
    <_>
      <rects>
        <_>
          39 38 1 2 -1.</_>
        <_>
          39 39 1 1 2.</_></rects>
      <tilted>0</tilted></_></features></cascade>
</opencv_storage>
