<?xml version="1.0"?>
<opencv_storage>
<cascade>
  <stageType>BOOST</stageType>
  <featureType>HAAR</featureType>
  <height>40</height>
  <width>40</width>
  <stageParams>
    <boostType>GAB</boostType>
    <minHitRate>9.9500000476837158e-01</minHitRate>
    <maxFalseAlarm>5.0000000000000000e-01</maxFalseAlarm>
    <weightTrimRate>9.4999998807907104e-01</weightTrimRate>
    <maxDepth>1</maxDepth>
    <maxWeakCount>100</maxWeakCount></stageParams>
  <featureParams>
    <maxCatCount>0</maxCatCount>
    <featSize>1</featSize>
    <mode>BASIC</mode></featureParams>
  <stageNum>15</stageNum>
  <stages>
    <!-- stage 0 -->
    <_>
      <maxWeakCount>3</maxWeakCount>
      <stageThreshold>-1.0134549140930176e+00</stageThreshold>
      <weakClassifiers>
        <_>
          <internalNodes>
            0 -1 36 9.6829049289226532e-03</internalNodes>
          <leafValues>
            -9.4195252656936646e-01 5.0000000000000000e-01</leafValues></_>
        <_>
          <internalNodes>
            0 -1 5 -9.5231950283050537e-02</internalNodes>
          <leafValues>
            6.9450634717941284e-01 -7.9760700464248657e-01</leafValues></_>
        <_>
          <internalNodes>
            0 -1 22 -2.1474614739418030e-02</internalNodes>
          <leafValues>
            9.3923199176788330e-01 -7.1584796905517578e-01</leafValues></_></weakClassifiers></_>
    <!-- stage 1 -->
    <_>
      <maxWeakCount>3</maxWeakCount>
      <stageThreshold>-9.0082192420959473e-01</stageThreshold>
      <weakClassifiers>
        <_>
          <internalNodes>
            0 -1 31 -3.5187102854251862e-02</internalNodes>
          <leafValues>
            8.0645161867141724e-01 -7.2668111324310303e-01</leafValues></_>
        <_>
          <internalNodes>
            0 -1 45 1.2262940872460604e-03</internalNodes>
          <leafValues>
            -7.1398657560348511e-01 7.2125434875488281e-01</leafValues></_>
        <_>
          <internalNodes>
            0 -1 40 -1.2663581874221563e-03</internalNodes>
          <leafValues>
            5.3984576463699341e-01 -7.6328605413436890e-01</leafValues></_></weakClassifiers></_>
    <!-- stage 2 -->
    <_>
      <maxWeakCount>3</maxWeakCount>
      <stageThreshold>-1.0095390081405640e+00</stageThreshold>
      <weakClassifiers>
        <_>
          <internalNodes>
            0 -1 17 1.0118989646434784e-01</internalNodes>
          <leafValues>
            -7.5870066881179810e-01 4.5652174949645996e-01</leafValues></_>
        <_>
          <internalNodes>
            0 -1 11 8.2161322236061096e-02</internalNodes>
          <leafValues>
            -6.2645024061203003e-01 6.8206471204757690e-01</leafValues></_>
        <_>
          <internalNodes>
            0 -1 44 -1.1070892214775085e-02</internalNodes>
          <leafValues>
            3.7561202049255371e-01 -9.0252751111984253e-01</leafValues></_></weakClassifiers></_>
    <!-- stage 3 -->
    <_>
      <maxWeakCount>3</maxWeakCount>
      <stageThreshold>-6.7554050683975220e-01</stageThreshold>
      <weakClassifiers>
        <_>
          <internalNodes>
            0 -1 9 -6.9594080559909344e-03</internalNodes>
          <leafValues>
            4.9425286054611206e-01 -7.5229358673095703e-01</leafValues></_>
        <_>
          <internalNodes>
            0 -1 53 1.9401076715439558e-03</internalNodes>
          <leafValues>
            -4.9734258651733398e-01 7.7892833948135376e-01</leafValues></_>
        <_>
          <internalNodes>
            0 -1 49 8.4824338555335999e-03</internalNodes>
          <leafValues>
            -6.7245078086853027e-01 5.9268236160278320e-01</leafValues></_></weakClassifiers></_>
    <!-- stage 4 -->
    <_>
      <maxWeakCount>3</maxWeakCount>
      <stageThreshold>-1.3651950359344482e+00</stageThreshold>
      <weakClassifiers>
        <_>
          <internalNodes>
            0 -1 34 1.0755851864814758e-02</internalNodes>
          <leafValues>
            -7.9710143804550171e-01 4.1284403204917908e-01</leafValues></_>
        <_>
          <internalNodes>
            0 -1 7 -1.5028544003143907e-03</internalNodes>
          <leafValues>
            2.8865817189216614e-01 -8.4575241804122925e-01</leafValues></_>
        <_>
          <internalNodes>
            0 -1 39 -7.7919126488268375e-04</internalNodes>
          <leafValues>
            2.7765876054763794e-01 -9.6671032905578613e-01</leafValues></_></weakClassifiers></_>
    <!-- stage 5 -->
    <_>
      <maxWeakCount>5</maxWeakCount>
      <stageThreshold>-1.3371918201446533e+00</stageThreshold>
      <weakClassifiers>
        <_>
          <internalNodes>
            0 -1 13 -3.0007544904947281e-02</internalNodes>
          <leafValues>
            5.8333331346511841e-01 -7.2505545616149902e-01</leafValues></_>
        <_>
          <internalNodes>
            0 -1 14 -1.2801346182823181e-01</internalNodes>
          <leafValues>
            5.9732532501220703e-01 -6.3565731048583984e-01</leafValues></_>
        <_>
          <internalNodes>
            0 -1 2 -3.4354552626609802e-03</internalNodes>
          <leafValues>
            3.5250395536422729e-01 -8.5495722293853760e-01</leafValues></_>
        <_>
          <internalNodes>
            0 -1 19 3.3359997905790806e-03</internalNodes>
          <leafValues>
            -7.0749074220657349e-01 4.2385432124137878e-01</leafValues></_>
        <_>
          <internalNodes>
            0 -1 24 -7.4459426105022430e-02</internalNodes>
          <leafValues>
            3.7850764393806458e-01 -9.4784116744995117e-01</leafValues></_></weakClassifiers></_>
    <!-- stage 6 -->
    <_>
      <maxWeakCount>3</maxWeakCount>
      <stageThreshold>-7.8743261098861694e-01</stageThreshold>
      <weakClassifiers>
        <_>
          <internalNodes>
            0 -1 10 -3.0943199992179871e-02</internalNodes>
          <leafValues>
            8.7755101919174194e-01 -6.9198310375213623e-01</leafValues></_>
        <_>
          <internalNodes>
            0 -1 20 1.3158046640455723e-02</internalNodes>
          <leafValues>
            -6.8926882743835449e-01 4.6165886521339417e-01</leafValues></_>
        <_>
          <internalNodes>
            0 -1 37 -7.5141511857509613e-02</internalNodes>
          <leafValues>
            5.9381932020187378e-01 -5.1894521713256836e-01</leafValues></_></weakClassifiers></_>
    <!-- stage 7 -->
    <_>
      <maxWeakCount>3</maxWeakCount>
      <stageThreshold>-7.7332156896591187e-01</stageThreshold>
      <weakClassifiers>
        <_>
          <internalNodes>
            0 -1 57 5.3092606365680695e-02</internalNodes>
          <leafValues>
            -7.0815449953079224e-01 7.8947371244430542e-01</leafValues></_>
        <_>
          <internalNodes>
            0 -1 29 9.6217952668666840e-03</internalNodes>
          <leafValues>
            -4.5614671707153320e-01 8.7035357952117920e-01</leafValues></_>
        <_>
          <internalNodes>
            0 -1 25 -9.2537578893825412e-05</internalNodes>
          <leafValues>
            -9.0422916412353516e-01 3.9097964763641357e-01</leafValues></_></weakClassifiers></_>
    <!-- stage 8 -->
    <_>
      <maxWeakCount>6</maxWeakCount>
      <stageThreshold>-6.6779237985610962e-01</stageThreshold>
      <weakClassifiers>
        <_>
          <internalNodes>
            0 -1 58 5.2253603935241699e-02</internalNodes>
          <leafValues>
            -7.0212763547897339e-01 8.4905660152435303e-01</leafValues></_>
        <_>
          <internalNodes>
            0 -1 4 -8.3125799894332886e-02</internalNodes>
          <leafValues>
            4.4815066456794739e-01 -6.4094340801239014e-01</leafValues></_>
        <_>
          <internalNodes>
            0 -1 23 -9.4248229288496077e-05</internalNodes>
          <leafValues>
            -7.9401838779449463e-01 3.9634138345718384e-01</leafValues></_>
        <_>
          <internalNodes>
            0 -1 1 -4.9933623522520065e-03</internalNodes>
          <leafValues>
            4.8814627528190613e-01 -6.5314447879791260e-01</leafValues></_>
        <_>
          <internalNodes>
            0 -1 27 -1.3290470815263689e-04</internalNodes>
          <leafValues>
            -8.7216717004776001e-01 3.6086755990982056e-01</leafValues></_>
        <_>
          <internalNodes>
            0 -1 54 4.6078313142061234e-02</internalNodes>
          <leafValues>
            -4.2613589763641357e-01 8.8828068971633911e-01</leafValues></_></weakClassifiers></_>
    <!-- stage 9 -->
    <_>
      <maxWeakCount>4</maxWeakCount>
      <stageThreshold>-8.6808604001998901e-01</stageThreshold>
      <weakClassifiers>
        <_>
          <internalNodes>
            0 -1 6 -5.7463202625513077e-02</internalNodes>
          <leafValues>
            9.0697675943374634e-01 -6.7500001192092896e-01</leafValues></_>
        <_>
          <internalNodes>
            0 -1 3 5.5809048935770988e-03</internalNodes>
          <leafValues>
            -7.6500844955444336e-01 3.6508750915527344e-01</leafValues></_>
        <_>
          <internalNodes>
            0 -1 30 1.7558941617608070e-03</internalNodes>
          <leafValues>
            3.4234592318534851e-01 -8.0220693349838257e-01</leafValues></_>
        <_>
          <internalNodes>
            0 -1 0 9.5786247402429581e-04</internalNodes>
          <leafValues>
            2.4403336644172668e-01 -8.6640226840972900e-01</leafValues></_></weakClassifiers></_>
    <!-- stage 10 -->
    <_>
      <maxWeakCount>5</maxWeakCount>
      <stageThreshold>-9.5960170030593872e-01</stageThreshold>
      <weakClassifiers>
        <_>
          <internalNodes>
            0 -1 16 -6.9807641208171844e-02</internalNodes>
          <leafValues>
            9.4285714626312256e-01 -6.5163934230804443e-01</leafValues></_>
        <_>
          <internalNodes>
            0 -1 33 -1.1102186515927315e-02</internalNodes>
          <leafValues>
            -9.2647916078567505e-01 1.7395347356796265e-01</leafValues></_>
        <_>
          <internalNodes>
            0 -1 35 5.7320473715662956e-03</internalNodes>
          <leafValues>
            2.2570009529590607e-01 -9.5461297035217285e-01</leafValues></_>
        <_>
          <internalNodes>
            0 -1 61 -1.5078504802659154e-03</internalNodes>
          <leafValues>
            -9.5656859874725342e-01 1.8137757480144501e-01</leafValues></_>
        <_>
          <internalNodes>
            0 -1 55 1.6757796402089298e-04</internalNodes>
          <leafValues>
            2.9131957888603210e-01 -6.9892323017120361e-01</leafValues></_></weakClassifiers></_>
    <!-- stage 11 -->
    <_>
      <maxWeakCount>6</maxWeakCount>
      <stageThreshold>-1.1433222293853760e+00</stageThreshold>
      <weakClassifiers>
        <_>
          <internalNodes>
            0 -1 21 8.7023116648197174e-03</internalNodes>
          <leafValues>
            -6.7864692211151123e-01 7.2000002861022949e-01</leafValues></_>
        <_>
          <internalNodes>
            0 -1 52 4.6664830733789131e-05</internalNodes>
          <leafValues>
            2.3916417360305786e-01 -7.3483163118362427e-01</leafValues></_>
        <_>
          <internalNodes>
            0 -1 38 -5.8368738973513246e-04</internalNodes>
          <leafValues>
            -9.5707547664642334e-01 1.9202080368995667e-01</leafValues></_>
        <_>
          <internalNodes>
            0 -1 28 4.5977057889103889e-03</internalNodes>
          <leafValues>
            -3.2118421792984009e-01 7.8185802698135376e-01</leafValues></_>
        <_>
          <internalNodes>
            0 -1 26 1.3704321463592350e-04</internalNodes>
          <leafValues>
            3.3392703533172607e-01 -8.2102912664413452e-01</leafValues></_>
        <_>
          <internalNodes>
            0 -1 32 1.7300781328231096e-03</internalNodes>
          <leafValues>
            2.4635303020477295e-01 -9.3980693817138672e-01</leafValues></_></weakClassifiers></_>
    <!-- stage 12 -->
    <_>
      <maxWeakCount>6</maxWeakCount>
      <stageThreshold>-1.7343150377273560e+00</stageThreshold>
      <weakClassifiers>
        <_>
          <internalNodes>
            0 -1 56 -3.2222796231508255e-02</internalNodes>
          <leafValues>
            9.4444441795349121e-01 -6.5503078699111938e-01</leafValues></_>
        <_>
          <internalNodes>
            0 -1 15 6.8946190178394318e-02</internalNodes>
          <leafValues>
            -3.6671987175941467e-01 8.8061273097991943e-01</leafValues></_>
        <_>
          <internalNodes>
            0 -1 12 7.2952166199684143e-02</internalNodes>
          <leafValues>
            -5.1931685209274292e-01 5.4143023490905762e-01</leafValues></_>
        <_>
          <internalNodes>
            0 -1 48 -4.3964870274066925e-03</internalNodes>
          <leafValues>
            2.6059576869010925e-01 -9.3044978380203247e-01</leafValues></_>
        <_>
          <internalNodes>
            0 -1 41 -1.7030942253768444e-03</internalNodes>
          <leafValues>
            -9.5467311143875122e-01 2.2798147797584534e-01</leafValues></_>
        <_>
          <internalNodes>
            0 -1 51 2.4087121346383356e-05</internalNodes>
          <leafValues>
            2.8558549284934998e-01 -6.8182480335235596e-01</leafValues></_></weakClassifiers></_>
    <!-- stage 13 -->
    <_>
      <maxWeakCount>4</maxWeakCount>
      <stageThreshold>-1.0519868135452271e+00</stageThreshold>
      <weakClassifiers>
        <_>
          <internalNodes>
            0 -1 59 -1.7898485064506531e-02</internalNodes>
          <leafValues>
            3.2352942228317261e-01 -6.7472529411315918e-01</leafValues></_>
        <_>
          <internalNodes>
            0 -1 46 6.7723949905484915e-04</internalNodes>
          <leafValues>
            -7.7620780467987061e-01 2.8772196173667908e-01</leafValues></_>
        <_>
          <internalNodes>
            0 -1 42 3.4714029170572758e-03</internalNodes>
          <leafValues>
            1.9740024209022522e-01 -8.7841999530792236e-01</leafValues></_>
        <_>
          <internalNodes>
            0 -1 43 1.2499049771577120e-03</internalNodes>
          <leafValues>
            2.1343645453453064e-01 -1.</leafValues></_></weakClassifiers></_>
    <!-- stage 14 -->
    <_>
      <maxWeakCount>6</maxWeakCount>
      <stageThreshold>-1.4472780227661133e+00</stageThreshold>
      <weakClassifiers>
        <_>
          <internalNodes>
            0 -1 60 1.9478954374790192e-02</internalNodes>
          <leafValues>
            -6.9264072179794312e-01 5.7377046346664429e-01</leafValues></_>
        <_>
          <internalNodes>
            0 -1 8 1.5100166201591492e-02</internalNodes>
          <leafValues>
            -4.3841144442558289e-01 6.9754409790039063e-01</leafValues></_>
        <_>
          <internalNodes>
            0 -1 50 -8.4921874804422259e-04</internalNodes>
          <leafValues>
            5.9326928853988647e-01 -4.5541709661483765e-01</leafValues></_>
        <_>
          <internalNodes>
            0 -1 47 3.7537585012614727e-04</internalNodes>
          <leafValues>
            -5.9129077196121216e-01 4.3913319706916809e-01</leafValues></_>
        <_>
          <internalNodes>
            0 -1 18 -2.8705298900604248e-02</internalNodes>
          <leafValues>
            3.8865661621093750e-01 -6.0974353551864624e-01</leafValues></_>
        <_>
          <internalNodes>
            0 -1 62 -7.7381184382829815e-05</internalNodes>
          <leafValues>
            -8.0008983612060547e-01 3.0980157852172852e-01</leafValues></_></weakClassifiers></_></stages>
  <features>
    <_>
      <rects>
        <_>
          0 0 8 12 -1.</_>
        <_>
          4 0 4 12 2.</_></rects>
      <tilted>0</tilted></_>
    <_>
      <rects>
        <_>
          0 0 20 1 -1.</_>
        <_>
          10 0 10 1 2.</_></rects>
      <tilted>0</tilted></_>
    <_>
      <rects>
        <_>
          0 0 32 1 -1.</_>
        <_>
          16 0 16 1 2.</_></rects>
      <tilted>0</tilted></_>
    <_>
      <rects>
        <_>
          0 1 24 4 -1.</_>
        <_>
          0 3 24 2 2.</_></rects>
      <tilted>0</tilted></_>
    <_>
      <rects>
        <_>
          0 5 38 27 -1.</_>
        <_>
          0 14 38 9 3.</_></rects>
      <tilted>0</tilted></_>
    <_>
      <rects>
        <_>
          0 6 40 14 -1.</_>
        <_>
          0 13 40 7 2.</_></rects>
      <tilted>0</tilted></_>
    <_>
      <rects>
        <_>
          0 12 6 28 -1.</_>
        <_>
          3 12 3 28 2.</_></rects>
      <tilted>0</tilted></_>
    <_>
      <rects>
        <_>
          0 12 16 4 -1.</_>
        <_>
          0 14 16 2 2.</_></rects>
      <tilted>0</tilted></_>
    <_>
      <rects>
        <_>
          0 15 3 24 -1.</_>
        <_>
          0 23 3 8 3.</_></rects>
      <tilted>0</tilted></_>
    <_>
      <rects>
        <_>
          0 22 8 3 -1.</_>
        <_>
          4 22 4 3 2.</_></rects>
      <tilted>0</tilted></_>
    <_>
      <rects>
        <_>
          0 28 9 8 -1.</_>
        <_>
          3 28 3 8 3.</_></rects>
      <tilted>0</tilted></_>
    <_>
      <rects>
        <_>
          1 1 39 15 -1.</_>
        <_>
          1 6 39 5 3.</_></rects>
      <tilted>0</tilted></_>
    <_>
      <rects>
        <_>
          1 2 26 26 -1.</_>
        <_>
          1 2 13 13 2.</_>
        <_>
          14 15 13 13 2.</_></rects>
      <tilted>0</tilted></_>
    <_>
      <rects>
        <_>
          1 4 28 2 -1.</_>
        <_>
          15 4 14 2 2.</_></rects>
      <tilted>0</tilted></_>
    <_>
      <rects>
        <_>
          1 5 39 14 -1.</_>
        <_>
          1 12 39 7 2.</_></rects>
      <tilted>0</tilted></_>
    <_>
      <rects>
        <_>
          1 13 39 4 -1.</_>
        <_>
          14 13 13 4 3.</_></rects>
      <tilted>0</tilted></_>
    <_>
      <rects>
        <_>
          1 24 9 16 -1.</_>
        <_>
          4 24 3 16 3.</_></rects>
      <tilted>0</tilted></_>
    <_>
      <rects>
        <_>
          3 1 24 24 -1.</_>
        <_>
          3 1 12 12 2.</_>
        <_>
          15 13 12 12 2.</_></rects>
      <tilted>0</tilted></_>
    <_>
      <rects>
        <_>
          3 5 6 22 -1.</_>
        <_>
          3 16 6 11 2.</_></rects>
      <tilted>0</tilted></_>
    <_>
      <rects>
        <_>
          3 27 20 13 -1.</_>
        <_>
          13 27 10 13 2.</_></rects>
      <tilted>0</tilted></_>
    <_>
      <rects>
        <_>
          4 26 18 14 -1.</_>
        <_>
          13 26 9 14 2.</_></rects>
      <tilted>0</tilted></_>
    <_>
      <rects>
        <_>
          5 28 4 8 -1.</_>
        <_>
          7 28 2 8 2.</_></rects>
      <tilted>0</tilted></_>
    <_>
      <rects>
        <_>
          6 0 30 1 -1.</_>
        <_>
          16 0 10 1 3.</_></rects>
      <tilted>0</tilted></_>
    <_>
      <rects>
        <_>
          6 1 4 1 -1.</_>
        <_>
          8 1 2 1 2.</_></rects>
      <tilted>0</tilted></_>
    <_>
      <rects>
        <_>
          7 5 26 28 -1.</_>
        <_>
          7 19 26 14 2.</_></rects>
      <tilted>0</tilted></_>
    <_>
      <rects>
        <_>
          8 1 2 4 -1.</_>
        <_>
          8 3 2 2 2.</_></rects>
      <tilted>0</tilted></_>
    <_>
      <rects>
        <_>
          8 32 14 4 -1.</_>
        <_>
          8 34 14 2 2.</_></rects>
      <tilted>0</tilted></_>
    <_>
      <rects>
        <_>
          10 0 2 4 -1.</_>
        <_>
          11 0 1 4 2.</_></rects>
      <tilted>0</tilted></_>
    <_>
      <rects>
        <_>
          10 0 8 2 -1.</_>
        <_>
          10 1 8 1 2.</_></rects>
      <tilted>0</tilted></_>
    <_>
      <rects>
        <_>
          10 0 21 2 -1.</_>
        <_>
          10 1 21 1 2.</_></rects>
      <tilted>0</tilted></_>
    <_>
      <rects>
        <_>
          10 9 30 1 -1.</_>
        <_>
          20 9 10 1 3.</_></rects>
      <tilted>0</tilted></_>
    <_>
      <rects>
        <_>
          11 0 21 2 -1.</_>
        <_>
          18 0 7 2 3.</_></rects>
      <tilted>0</tilted></_>
    <_>
      <rects>
        <_>
          11 30 11 6 -1.</_>
        <_>
          11 32 11 2 3.</_></rects>
      <tilted>0</tilted></_>
    <_>
      <rects>
        <_>
          13 0 10 39 -1.</_>
        <_>
          13 13 10 13 3.</_></rects>
      <tilted>0</tilted></_>
    <_>
      <rects>
        <_>
          13 2 6 20 -1.</_>
        <_>
          13 2 3 10 2.</_>
        <_>
          16 12 3 10 2.</_></rects>
      <tilted>0</tilted></_>
    <_>
      <rects>
        <_>
          14 20 10 10 -1.</_>
        <_>
          14 20 5 5 2.</_>
        <_>
          19 25 5 5 2.</_></rects>
      <tilted>0</tilted></_>
    <_>
      <rects>
        <_>
          15 0 10 8 -1.</_>
        <_>
          15 4 10 4 2.</_></rects>
      <tilted>0</tilted></_>
    <_>
      <rects>
        <_>
          15 1 22 20 -1.</_>
        <_>
          15 1 11 10 2.</_>
        <_>
          26 11 11 10 2.</_></rects>
      <tilted>0</tilted></_>
    <_>
      <rects>
        <_>
          15 17 2 4 -1.</_>
        <_>
          15 19 2 2 2.</_></rects>
      <tilted>0</tilted></_>
    <_>
      <rects>
        <_>
          15 19 5 10 -1.</_>
        <_>
          15 24 5 5 2.</_></rects>
      <tilted>0</tilted></_>
    <_>
      <rects>
        <_>
          15 21 1 18 -1.</_>
        <_>
          15 30 1 9 2.</_></rects>
      <tilted>0</tilted></_>
    <_>
      <rects>
        <_>
          15 29 9 4 -1.</_>
        <_>
          15 31 9 2 2.</_></rects>
      <tilted>0</tilted></_>
    <_>
      <rects>
        <_>
          16 27 18 3 -1.</_>
        <_>
          25 27 9 3 2.</_></rects>
      <tilted>0</tilted></_>
    <_>
      <rects>
        <_>
          16 33 4 6 -1.</_>
        <_>
          16 35 4 2 3.</_></rects>
      <tilted>0</tilted></_>
    <_>
      <rects>
        <_>
          17 3 18 20 -1.</_>
        <_>
          17 3 9 10 2.</_>
        <_>
          26 13 9 10 2.</_></rects>
      <tilted>0</tilted></_>
    <_>
      <rects>
        <_>
          20 0 8 2 -1.</_>
        <_>
          20 1 8 1 2.</_></rects>
      <tilted>0</tilted></_>
    <_>
      <rects>
        <_>
          21 0 3 4 -1.</_>
        <_>
          21 2 3 2 2.</_></rects>
      <tilted>0</tilted></_>
    <_>
      <rects>
        <_>
          21 0 5 2 -1.</_>
        <_>
          21 1 5 1 2.</_></rects>
      <tilted>0</tilted></_>
    <_>
      <rects>
        <_>
          22 9 17 8 -1.</_>
        <_>
          22 13 17 4 2.</_></rects>
      <tilted>0</tilted></_>
    <_>
      <rects>
        <_>
          23 0 3 15 -1.</_>
        <_>
          23 5 3 5 3.</_></rects>
      <tilted>0</tilted></_>
    <_>
      <rects>
        <_>
          24 18 6 2 -1.</_>
        <_>
          26 18 2 2 3.</_></rects>
      <tilted>0</tilted></_>
    <_>
      <rects>
        <_>
          26 0 6 1 -1.</_>
        <_>
          29 0 3 1 2.</_></rects>
      <tilted>0</tilted></_>
    <_>
      <rects>
        <_>
          27 1 6 1 -1.</_>
        <_>
          30 1 3 1 2.</_></rects>
      <tilted>0</tilted></_>
    <_>
      <rects>
        <_>
          29 0 2 6 -1.</_>
        <_>
          29 2 2 2 3.</_></rects>
      <tilted>0</tilted></_>
    <_>
      <rects>
        <_>
          30 0 7 15 -1.</_>
        <_>
          30 5 7 5 3.</_></rects>
      <tilted>0</tilted></_>
    <_>
      <rects>
        <_>
          30 3 5 8 -1.</_>
        <_>
          30 7 5 4 2.</_></rects>
      <tilted>0</tilted></_>
    <_>
      <rects>
        <_>
          30 29 9 8 -1.</_>
        <_>
          33 29 3 8 3.</_></rects>
      <tilted>0</tilted></_>
    <_>
      <rects>
        <_>
          32 18 8 22 -1.</_>
        <_>
          36 18 4 22 2.</_></rects>
      <tilted>0</tilted></_>
    <_>
      <rects>
        <_>
          32 20 8 20 -1.</_>
        <_>
          36 20 4 20 2.</_></rects>
      <tilted>0</tilted></_>
    <_>
      <rects>
        <_>
          33 12 2 24 -1.</_>
        <_>
          33 24 2 12 2.</_></rects>
      <tilted>0</tilted></_>
    <_>
      <rects>
        <_>
          33 12 6 26 -1.</_>
        <_>
          33 12 3 13 2.</_>
        <_>
          36 25 3 13 2.</_></rects>
      <tilted>0</tilted></_>
    <_>
      <rects>
        <_>
          34 0 6 5 -1.</_>
        <_>
          37 0 3 5 2.</_></rects>
      <tilted>0</tilted></_>
    <_>
      <rects>
        <_>
          38 6 2 6 -1.</_>
        <_>
          38 6 1 3 2.</_>
        <_>
          39 9 1 3 2.</_></rects>
      <tilted>0</tilted></_></features></cascade>
</opencv_storage>
