<?xml version="1.0"?>
<opencv_storage>
<stage10>
  <maxWeakCount>5</maxWeakCount>
  <stageThreshold>-9.5960170030593872e-01</stageThreshold>
  <weakClassifiers>
    <_>
      <internalNodes>
        0 -1 111574 -6.9807641208171844e-02</internalNodes>
      <leafValues>
        9.4285714626312256e-01 -6.5163934230804443e-01</leafValues></_>
    <_>
      <internalNodes>
        0 -1 676187 -1.1102186515927315e-02</internalNodes>
      <leafValues>
        -9.2647916078567505e-01 1.7395347356796265e-01</leafValues></_>
    <_>
      <internalNodes>
        0 -1 745920 5.7320473715662956e-03</internalNodes>
      <leafValues>
        2.2570009529590607e-01 -9.5461297035217285e-01</leafValues></_>
    <_>
      <internalNodes>
        0 -1 1213742 -1.5078504802659154e-03</internalNodes>
      <leafValues>
        -9.5656859874725342e-01 1.8137757480144501e-01</leafValues></_>
    <_>
      <internalNodes>
        0 -1 1165950 1.6757796402089298e-04</internalNodes>
      <leafValues>
        2.9131957888603210e-01 -6.9892323017120361e-01</leafValues></_></weakClassifiers></stage10>
</opencv_storage>
