<?xml version="1.0"?>
<opencv_storage>
<stage5>
  <maxWeakCount>5</maxWeakCount>
  <stageThreshold>-1.3371918201446533e+00</stageThreshold>
  <weakClassifiers>
    <_>
      <internalNodes>
        0 -1 74310 -3.0007544904947281e-02</internalNodes>
      <leafValues>
        5.8333331346511841e-01 -7.2505545616149902e-01</leafValues></_>
    <_>
      <internalNodes>
        0 -1 77929 -1.2801346182823181e-01</internalNodes>
      <leafValues>
        5.9732532501220703e-01 -6.3565731048583984e-01</leafValues></_>
    <_>
      <internalNodes>
        0 -1 1915 -3.4354552626609802e-03</internalNodes>
      <leafValues>
        3.5250395536422729e-01 -8.5495722293853760e-01</leafValues></_>
    <_>
      <internalNodes>
        0 -1 229776 3.3359997905790806e-03</internalNodes>
      <leafValues>
        -7.0749074220657349e-01 4.2385432124137878e-01</leafValues></_>
    <_>
      <internalNodes>
        0 -1 409703 -7.4459426105022430e-02</internalNodes>
      <leafValues>
        3.7850764393806458e-01 -9.4784116744995117e-01</leafValues></_></weakClassifiers></stage5>
</opencv_storage>
