<?xml version="1.0"?>
<opencv_storage>
<cascade>
  <stageType>BOOST</stageType>
  <featureType>HAAR</featureType>
  <height>40</height>
  <width>40</width>
  <stageParams>
    <boostType>GAB</boostType>
    <minHitRate>9.9500000476837158e-01</minHitRate>
    <maxFalseAlarm>5.0000000000000000e-01</maxFalseAlarm>
    <weightTrimRate>9.4999998807907104e-01</weightTrimRate>
    <maxDepth>1</maxDepth>
    <maxWeakCount>100</maxWeakCount></stageParams>
  <featureParams>
    <maxCatCount>0</maxCatCount>
    <featSize>1</featSize>
    <mode>BASIC</mode></featureParams>
  <stageNum>16</stageNum>
  <stages>
    <!-- stage 0 -->
    <_>
      <maxWeakCount>2</maxWeakCount>
      <stageThreshold>-2.7668726444244385e-01</stageThreshold>
      <weakClassifiers>
        <_>
          <internalNodes>
            0 -1 18 -6.4159452915191650e-02</internalNodes>
          <leafValues>
            6.9230771064758301e-01 -9.3103450536727905e-01</leafValues></_>
        <_>
          <internalNodes>
            0 -1 3 -7.3615454137325287e-02</internalNodes>
          <leafValues>
            6.5434724092483521e-01 -9.6163904666900635e-01</leafValues></_></weakClassifiers></_>
    <!-- stage 1 -->
    <_>
      <maxWeakCount>3</maxWeakCount>
      <stageThreshold>-1.1098864078521729e+00</stageThreshold>
      <weakClassifiers>
        <_>
          <internalNodes>
            0 -1 31 2.4174368008971214e-03</internalNodes>
          <leafValues>
            -8.0487805604934692e-01 8.5714286565780640e-01</leafValues></_>
        <_>
          <internalNodes>
            0 -1 36 -5.3163081407546997e-02</internalNodes>
          <leafValues>
            7.7313697338104248e-01 -7.5939577817916870e-01</leafValues></_>
        <_>
          <internalNodes>
            0 -1 0 6.6107349994126707e-05</internalNodes>
          <leafValues>
            -9.4060808420181274e-01 4.5438739657402039e-01</leafValues></_></weakClassifiers></_>
    <!-- stage 2 -->
    <_>
      <maxWeakCount>2</maxWeakCount>
      <stageThreshold>-4.6522954106330872e-01</stageThreshold>
      <weakClassifiers>
        <_>
          <internalNodes>
            0 -1 38 2.2150729782879353e-03</internalNodes>
          <leafValues>
            -8.1132078170776367e-01 5.1999998092651367e-01</leafValues></_>
        <_>
          <internalNodes>
            0 -1 13 -6.8923175334930420e-02</internalNodes>
          <leafValues>
            4.0701460838317871e-01 -9.8522955179214478e-01</leafValues></_></weakClassifiers></_>
    <!-- stage 3 -->
    <_>
      <maxWeakCount>2</maxWeakCount>
      <stageThreshold>-6.5357106924057007e-01</stageThreshold>
      <weakClassifiers>
        <_>
          <internalNodes>
            0 -1 24 -1.2892603874206543e-01</internalNodes>
          <leafValues>
            6.0869562625885010e-01 -8.8321167230606079e-01</leafValues></_>
        <_>
          <internalNodes>
            0 -1 11 -3.9124436676502228e-02</internalNodes>
          <leafValues>
            2.2964063286781311e-01 -1.</leafValues></_></weakClassifiers></_>
    <!-- stage 4 -->
    <_>
      <maxWeakCount>3</maxWeakCount>
      <stageThreshold>-1.3371435403823853e+00</stageThreshold>
      <weakClassifiers>
        <_>
          <internalNodes>
            0 -1 20 -2.3665285110473633e-01</internalNodes>
          <leafValues>
            4.6496814489364624e-01 -8.9795917272567749e-01</leafValues></_>
        <_>
          <internalNodes>
            0 -1 48 -6.5139085054397583e-02</internalNodes>
          <leafValues>
            6.4128571748733521e-01 -8.0955928564071655e-01</leafValues></_>
        <_>
          <internalNodes>
            0 -1 26 -1.0370224714279175e-01</internalNodes>
          <leafValues>
            3.7037497758865356e-01 -9.9212193489074707e-01</leafValues></_></weakClassifiers></_>
    <!-- stage 5 -->
    <_>
      <maxWeakCount>4</maxWeakCount>
      <stageThreshold>-1.0570420026779175e+00</stageThreshold>
      <weakClassifiers>
        <_>
          <internalNodes>
            0 -1 29 -2.4975815415382385e-01</internalNodes>
          <leafValues>
            3.4640523791313171e-01 -8.3838385343551636e-01</leafValues></_>
        <_>
          <internalNodes>
            0 -1 33 -1.0343469679355621e-01</internalNodes>
          <leafValues>
            3.9141058921813965e-01 -9.1460472345352173e-01</leafValues></_>
        <_>
          <internalNodes>
            0 -1 37 1.4193139038980007e-02</internalNodes>
          <leafValues>
            -8.1949031352996826e-01 4.3385362625122070e-01</leafValues></_>
        <_>
          <internalNodes>
            0 -1 30 -2.0715609192848206e-02</internalNodes>
          <leafValues>
            3.3064779639244080e-01 -8.8979321718215942e-01</leafValues></_></weakClassifiers></_>
    <!-- stage 6 -->
    <_>
      <maxWeakCount>4</maxWeakCount>
      <stageThreshold>-1.3342624902725220e+00</stageThreshold>
      <weakClassifiers>
        <_>
          <internalNodes>
            0 -1 7 -3.1136769801378250e-02</internalNodes>
          <leafValues>
            8.4126985073089600e-01 -6.8312758207321167e-01</leafValues></_>
        <_>
          <internalNodes>
            0 -1 17 5.9339264407753944e-03</internalNodes>
          <leafValues>
            -4.9538421630859375e-01 8.4328383207321167e-01</leafValues></_>
        <_>
          <internalNodes>
            0 -1 21 -2.2783997654914856e-01</internalNodes>
          <leafValues>
            5.2242523431777954e-01 -7.0953822135925293e-01</leafValues></_>
        <_>
          <internalNodes>
            0 -1 46 -6.3738070428371429e-02</internalNodes>
          <leafValues>
            5.5378758907318115e-01 -8.5142749547958374e-01</leafValues></_></weakClassifiers></_>
    <!-- stage 7 -->
    <_>
      <maxWeakCount>3</maxWeakCount>
      <stageThreshold>-8.1354856491088867e-01</stageThreshold>
      <weakClassifiers>
        <_>
          <internalNodes>
            0 -1 43 4.6809252351522446e-02</internalNodes>
          <leafValues>
            -8.2075470685958862e-01 5.5199998617172241e-01</leafValues></_>
        <_>
          <internalNodes>
            0 -1 9 -7.3629901744425297e-03</internalNodes>
          <leafValues>
            7.4600470066070557e-01 -4.9768278002738953e-01</leafValues></_>
        <_>
          <internalNodes>
            0 -1 35 1.4928444288671017e-03</internalNodes>
          <leafValues>
            -7.2248274087905884e-01 5.0488895177841187e-01</leafValues></_></weakClassifiers></_>
    <!-- stage 8 -->
    <_>
      <maxWeakCount>3</maxWeakCount>
      <stageThreshold>-1.0630255937576294e+00</stageThreshold>
      <weakClassifiers>
        <_>
          <internalNodes>
            0 -1 25 -1.0089839994907379e-01</internalNodes>
          <leafValues>
            6.7567569017410278e-01 -8.0821919441223145e-01</leafValues></_>
        <_>
          <internalNodes>
            0 -1 28 -7.0400275290012360e-02</internalNodes>
          <leafValues>
            6.8167567253112793e-01 -6.0471695661544800e-01</leafValues></_>
        <_>
          <internalNodes>
            0 -1 49 -1.5060551231727004e-04</internalNodes>
          <leafValues>
            -9.3648213148117065e-01 4.1530022025108337e-01</leafValues></_></weakClassifiers></_>
    <!-- stage 9 -->
    <_>
      <maxWeakCount>4</maxWeakCount>
      <stageThreshold>-1.0026642084121704e+00</stageThreshold>
      <weakClassifiers>
        <_>
          <internalNodes>
            0 -1 34 -9.5303162932395935e-02</internalNodes>
          <leafValues>
            2.9936304688453674e-01 -8.3163267374038696e-01</leafValues></_>
        <_>
          <internalNodes>
            0 -1 22 -5.0827641040086746e-02</internalNodes>
          <leafValues>
            3.0398449301719666e-01 -8.4238195419311523e-01</leafValues></_>
        <_>
          <internalNodes>
            0 -1 53 -2.8318283148109913e-04</internalNodes>
          <leafValues>
            3.4157189726829529e-01 -7.7416598796844482e-01</leafValues></_>
        <_>
          <internalNodes>
            0 -1 19 -4.4029744458384812e-05</internalNodes>
          <leafValues>
            -9.8817354440689087e-01 3.2977843284606934e-01</leafValues></_></weakClassifiers></_>
    <!-- stage 10 -->
    <_>
      <maxWeakCount>3</maxWeakCount>
      <stageThreshold>-5.8866345882415771e-01</stageThreshold>
      <weakClassifiers>
        <_>
          <internalNodes>
            0 -1 15 -9.1840103268623352e-02</internalNodes>
          <leafValues>
            1.4893616735935211e-01 -8.5041552782058716e-01</leafValues></_>
        <_>
          <internalNodes>
            0 -1 23 -1.1961036943830550e-04</internalNodes>
          <leafValues>
            -9.5375692844390869e-01 2.5902101397514343e-01</leafValues></_>
        <_>
          <internalNodes>
            0 -1 51 -1.2023694580420852e-03</internalNodes>
          <leafValues>
            -9.4412916898727417e-01 2.1615731716156006e-01</leafValues></_></weakClassifiers></_>
    <!-- stage 11 -->
    <_>
      <maxWeakCount>4</maxWeakCount>
      <stageThreshold>-6.6353178024291992e-01</stageThreshold>
      <weakClassifiers>
        <_>
          <internalNodes>
            0 -1 42 -1.7275199294090271e-02</internalNodes>
          <leafValues>
            5.5263155698776245e-01 -6.7864692211151123e-01</leafValues></_>
        <_>
          <internalNodes>
            0 -1 45 4.6886134892702103e-02</internalNodes>
          <leafValues>
            -5.6059676408767700e-01 5.8378130197525024e-01</leafValues></_>
        <_>
          <internalNodes>
            0 -1 41 -6.3426211476325989e-02</internalNodes>
          <leafValues>
            3.6031353473663330e-01 -8.4787207841873169e-01</leafValues></_>
        <_>
          <internalNodes>
            0 -1 14 -5.2220151701476425e-05</internalNodes>
          <leafValues>
            -9.1706138849258423e-01 2.7920594811439514e-01</leafValues></_></weakClassifiers></_>
    <!-- stage 12 -->
    <_>
      <maxWeakCount>6</maxWeakCount>
      <stageThreshold>-1.5762780904769897e+00</stageThreshold>
      <weakClassifiers>
        <_>
          <internalNodes>
            0 -1 27 -1.2766668200492859e-01</internalNodes>
          <leafValues>
            1.8471337854862213e-01 -7.8571426868438721e-01</leafValues></_>
        <_>
          <internalNodes>
            0 -1 52 7.7360244467854500e-03</internalNodes>
          <leafValues>
            -4.3548896908760071e-01 7.6439887285232544e-01</leafValues></_>
        <_>
          <internalNodes>
            0 -1 54 1.2219907148391940e-05</internalNodes>
          <leafValues>
            -5.7168477773666382e-01 5.0266236066818237e-01</leafValues></_>
        <_>
          <internalNodes>
            0 -1 4 4.4021551730111241e-04</internalNodes>
          <leafValues>
            2.6463118195533752e-01 -8.9913582801818848e-01</leafValues></_>
        <_>
          <internalNodes>
            0 -1 44 4.0792800486087799e-02</internalNodes>
          <leafValues>
            -5.4287552833557129e-01 5.2168762683868408e-01</leafValues></_>
        <_>
          <internalNodes>
            0 -1 40 2.3633993696421385e-03</internalNodes>
          <leafValues>
            -3.8615348935127258e-01 7.7244418859481812e-01</leafValues></_></weakClassifiers></_>
    <!-- stage 13 -->
    <_>
      <maxWeakCount>5</maxWeakCount>
      <stageThreshold>-1.3349655866622925e+00</stageThreshold>
      <weakClassifiers>
        <_>
          <internalNodes>
            0 -1 6 -2.0239554345607758e-02</internalNodes>
          <leafValues>
            8.2758623361587524e-01 -6.6598778963088989e-01</leafValues></_>
        <_>
          <internalNodes>
            0 -1 8 -2.5537788867950439e-01</internalNodes>
          <leafValues>
            9.1375559568405151e-01 -3.5833069682121277e-01</leafValues></_>
        <_>
          <internalNodes>
            0 -1 12 -4.3234564363956451e-03</internalNodes>
          <leafValues>
            3.2459580898284912e-01 -9.7802162170410156e-01</leafValues></_>
        <_>
          <internalNodes>
            0 -1 16 1.1559576523723081e-04</internalNodes>
          <leafValues>
            2.4796867370605469e-01 -8.6833846569061279e-01</leafValues></_>
        <_>
          <internalNodes>
            0 -1 5 -1.2759023346006870e-02</internalNodes>
          <leafValues>
            2.3309557139873505e-01 -9.8750710487365723e-01</leafValues></_></weakClassifiers></_>
    <!-- stage 14 -->
    <_>
      <maxWeakCount>4</maxWeakCount>
      <stageThreshold>-7.9590511322021484e-01</stageThreshold>
      <weakClassifiers>
        <_>
          <internalNodes>
            0 -1 50 -4.2327925562858582e-02</internalNodes>
          <leafValues>
            8.7755101919174194e-01 -6.4399999380111694e-01</leafValues></_>
        <_>
          <internalNodes>
            0 -1 1 -2.6292803883552551e-01</internalNodes>
          <leafValues>
            4.8723503947257996e-01 -7.4987721443176270e-01</leafValues></_>
        <_>
          <internalNodes>
            0 -1 32 -1.4806957915425301e-04</internalNodes>
          <leafValues>
            -8.7916916608810425e-01 3.4679573774337769e-01</leafValues></_>
        <_>
          <internalNodes>
            0 -1 2 9.6275267424061894e-05</internalNodes>
          <leafValues>
            2.5117635726928711e-01 -9.4962227344512939e-01</leafValues></_></weakClassifiers></_>
    <!-- stage 15 -->
    <_>
      <maxWeakCount>3</maxWeakCount>
      <stageThreshold>-6.8811255693435669e-01</stageThreshold>
      <weakClassifiers>
        <_>
          <internalNodes>
            0 -1 10 -9.5383375883102417e-03</internalNodes>
          <leafValues>
            5.5844157934188843e-01 -6.8220341205596924e-01</leafValues></_>
        <_>
          <internalNodes>
            0 -1 39 1.0886535746976733e-03</internalNodes>
          <leafValues>
            -6.2138491868972778e-01 5.8583790063858032e-01</leafValues></_>
        <_>
          <internalNodes>
            0 -1 47 -1.5203882008790970e-02</internalNodes>
          <leafValues>
            6.1547577381134033e-01 -5.2999812364578247e-01</leafValues></_></weakClassifiers></_></stages>
  <features>
    <_>
      <rects>
        <_>
          0 0 12 4 -1.</_>
        <_>
          0 2 12 2 2.</_></rects>
      <tilted>0</tilted></_>
    <_>
      <rects>
        <_>
          0 1 39 13 -1.</_>
        <_>
          13 1 13 13 3.</_></rects>
      <tilted>0</tilted></_>
    <_>
      <rects>
        <_>
          0 3 2 3 -1.</_>
        <_>
          1 3 1 3 2.</_></rects>
      <tilted>0</tilted></_>
    <_>
      <rects>
        <_>
          0 6 39 14 -1.</_>
        <_>
          0 13 39 7 2.</_></rects>
      <tilted>0</tilted></_>
    <_>
      <rects>
        <_>
          0 9 2 24 -1.</_>
        <_>
          0 17 2 8 3.</_></rects>
      <tilted>0</tilted></_>
    <_>
      <rects>
        <_>
          0 11 28 4 -1.</_>
        <_>
          14 11 14 4 2.</_></rects>
      <tilted>0</tilted></_>
    <_>
      <rects>
        <_>
          0 22 4 17 -1.</_>
        <_>
          2 22 2 17 2.</_></rects>
      <tilted>0</tilted></_>
    <_>
      <rects>
        <_>
          0 23 9 13 -1.</_>
        <_>
          3 23 3 13 3.</_></rects>
      <tilted>0</tilted></_>
    <_>
      <rects>
        <_>
          0 23 39 10 -1.</_>
        <_>
          13 23 13 10 3.</_></rects>
      <tilted>0</tilted></_>
    <_>
      <rects>
        <_>
          0 32 6 7 -1.</_>
        <_>
          2 32 2 7 3.</_></rects>
      <tilted>0</tilted></_>
    <_>
      <rects>
        <_>
          0 32 6 8 -1.</_>
        <_>
          2 32 2 8 3.</_></rects>
      <tilted>0</tilted></_>
    <_>
      <rects>
        <_>
          1 0 24 6 -1.</_>
        <_>
          13 0 12 6 2.</_></rects>
      <tilted>0</tilted></_>
    <_>
      <rects>
        <_>
          2 7 19 8 -1.</_>
        <_>
          2 11 19 4 2.</_></rects>
      <tilted>0</tilted></_>
    <_>
      <rects>
        <_>
          4 2 36 30 -1.</_>
        <_>
          4 12 36 10 3.</_></rects>
      <tilted>0</tilted></_>
    <_>
      <rects>
        <_>
          5 0 2 6 -1.</_>
        <_>
          5 3 2 3 2.</_></rects>
      <tilted>0</tilted></_>
    <_>
      <rects>
        <_>
          5 0 18 12 -1.</_>
        <_>
          14 0 9 12 2.</_></rects>
      <tilted>0</tilted></_>
    <_>
      <rects>
        <_>
          6 0 2 3 -1.</_>
        <_>
          7 0 1 3 2.</_></rects>
      <tilted>0</tilted></_>
    <_>
      <rects>
        <_>
          6 0 27 2 -1.</_>
        <_>
          6 1 27 1 2.</_></rects>
      <tilted>0</tilted></_>
    <_>
      <rects>
        <_>
          6 1 27 5 -1.</_>
        <_>
          15 1 9 5 3.</_></rects>
      <tilted>0</tilted></_>
    <_>
      <rects>
        <_>
          6 3 2 1 -1.</_>
        <_>
          7 3 1 1 2.</_></rects>
      <tilted>0</tilted></_>
    <_>
      <rects>
        <_>
          8 0 24 29 -1.</_>
        <_>
          16 0 8 29 3.</_></rects>
      <tilted>0</tilted></_>
    <_>
      <rects>
        <_>
          8 0 24 32 -1.</_>
        <_>
          16 0 8 32 3.</_></rects>
      <tilted>0</tilted></_>
    <_>
      <rects>
        <_>
          8 2 12 34 -1.</_>
        <_>
          8 19 12 17 2.</_></rects>
      <tilted>0</tilted></_>
    <_>
      <rects>
        <_>
          8 3 4 1 -1.</_>
        <_>
          10 3 2 1 2.</_></rects>
      <tilted>0</tilted></_>
    <_>
      <rects>
        <_>
          9 0 21 14 -1.</_>
        <_>
          16 0 7 14 3.</_></rects>
      <tilted>0</tilted></_>
    <_>
      <rects>
        <_>
          9 0 14 17 -1.</_>
        <_>
          16 0 7 17 2.</_></rects>
      <tilted>0</tilted></_>
    <_>
      <rects>
        <_>
          9 1 24 34 -1.</_>
        <_>
          9 18 24 17 2.</_></rects>
      <tilted>0</tilted></_>
    <_>
      <rects>
        <_>
          9 18 24 15 -1.</_>
        <_>
          17 18 8 15 3.</_></rects>
      <tilted>0</tilted></_>
    <_>
      <rects>
        <_>
          9 23 24 10 -1.</_>
        <_>
          17 23 8 10 3.</_></rects>
      <tilted>0</tilted></_>
    <_>
      <rects>
        <_>
          10 0 21 30 -1.</_>
        <_>
          17 0 7 30 3.</_></rects>
      <tilted>0</tilted></_>
    <_>
      <rects>
        <_>
          10 2 25 12 -1.</_>
        <_>
          10 8 25 6 2.</_></rects>
      <tilted>0</tilted></_>
    <_>
      <rects>
        <_>
          11 0 16 3 -1.</_>
        <_>
          11 1 16 1 3.</_></rects>
      <tilted>0</tilted></_>
    <_>
      <rects>
        <_>
          11 2 2 2 -1.</_>
        <_>
          12 2 1 2 2.</_></rects>
      <tilted>0</tilted></_>
    <_>
      <rects>
        <_>
          12 3 25 34 -1.</_>
        <_>
          12 20 25 17 2.</_></rects>
      <tilted>0</tilted></_>
    <_>
      <rects>
        <_>
          12 8 18 17 -1.</_>
        <_>
          18 8 6 17 3.</_></rects>
      <tilted>0</tilted></_>
    <_>
      <rects>
        <_>
          12 28 23 12 -1.</_>
        <_>
          12 34 23 6 2.</_></rects>
      <tilted>0</tilted></_>
    <_>
      <rects>
        <_>
          14 0 15 9 -1.</_>
        <_>
          19 0 5 9 3.</_></rects>
      <tilted>0</tilted></_>
    <_>
      <rects>
        <_>
          14 0 26 2 -1.</_>
        <_>
          27 0 13 2 2.</_></rects>
      <tilted>0</tilted></_>
    <_>
      <rects>
        <_>
          14 0 16 3 -1.</_>
        <_>
          14 1 16 1 3.</_></rects>
      <tilted>0</tilted></_>
    <_>
      <rects>
        <_>
          14 1 8 3 -1.</_>
        <_>
          14 2 8 1 3.</_></rects>
      <tilted>0</tilted></_>
    <_>
      <rects>
        <_>
          15 0 10 2 -1.</_>
        <_>
          15 1 10 1 2.</_></rects>
      <tilted>0</tilted></_>
    <_>
      <rects>
        <_>
          15 3 18 28 -1.</_>
        <_>
          15 17 18 14 2.</_></rects>
      <tilted>0</tilted></_>
    <_>
      <rects>
        <_>
          16 28 10 12 -1.</_>
        <_>
          16 32 10 4 3.</_></rects>
      <tilted>0</tilted></_>
    <_>
      <rects>
        <_>
          18 17 14 14 -1.</_>
        <_>
          25 17 7 14 2.</_></rects>
      <tilted>0</tilted></_>
    <_>
      <rects>
        <_>
          18 20 22 13 -1.</_>
        <_>
          29 20 11 13 2.</_></rects>
      <tilted>0</tilted></_>
    <_>
      <rects>
        <_>
          19 16 18 19 -1.</_>
        <_>
          25 16 6 19 3.</_></rects>
      <tilted>0</tilted></_>
    <_>
      <rects>
        <_>
          26 2 13 22 -1.</_>
        <_>
          26 13 13 11 2.</_></rects>
      <tilted>0</tilted></_>
    <_>
      <rects>
        <_>
          28 6 12 17 -1.</_>
        <_>
          32 6 4 17 3.</_></rects>
      <tilted>0</tilted></_>
    <_>
      <rects>
        <_>
          29 0 10 24 -1.</_>
        <_>
          29 12 10 12 2.</_></rects>
      <tilted>0</tilted></_>
    <_>
      <rects>
        <_>
          30 0 5 4 -1.</_>
        <_>
          30 2 5 2 2.</_></rects>
      <tilted>0</tilted></_>
    <_>
      <rects>
        <_>
          31 24 9 16 -1.</_>
        <_>
          34 24 3 16 3.</_></rects>
      <tilted>0</tilted></_>
    <_>
      <rects>
        <_>
          33 1 6 4 -1.</_>
        <_>
          36 1 3 4 2.</_></rects>
      <tilted>0</tilted></_>
    <_>
      <rects>
        <_>
          34 12 3 18 -1.</_>
        <_>
          34 18 3 6 3.</_></rects>
      <tilted>0</tilted></_>
    <_>
      <rects>
        <_>
          38 28 2 12 -1.</_>
        <_>
          38 34 2 6 2.</_></rects>
      <tilted>0</tilted></_>
    <_>
      <rects>
        <_>
          39 5 1 8 -1.</_>
        <_>
          39 9 1 4 2.</_></rects>
      <tilted>0</tilted></_></features></cascade>
</opencv_storage>
